{"learner":{"attributes":{"scikit_learn":"{\"_estimator_type\": \"classifier\"}"},"feature_names":[],"feature_types":[],"gradient_booster":{"model":{"gbtree_model_param":{"num_parallel_tree":"1","num_trees":"200"},"iteration_indptr":[0,1,2,3,4,5,6,7,8,9,10,11,12,13,14,15,16,17,18,19,20,21,22,23,24,25,26,27,28,29,30,31,32,33,34,35,36,37,38,39,40,41,42,43,44,45,46,47,48,49,50,51,52,53,54,55,56,57,58,59,60,61,62,63,64,65,66,67,68,69,70,71,72,73,74,75,76,77,78,79,80,81,82,83,84,85,86,87,88,89,90,91,92,93,94,95,96,97,98,99,100,101,102,103,104,105,106,107,108,109,110,111,112,113,114,115,116,117,118,119,120,121,122,123,124,125,126,127,128,129,130,131,132,133,134,135,136,137,138,139,140,141,142,143,144,145,146,147,148,149,150,151,152,153,154,155,156,157,158,159,160,161,162,163,164,165,166,167,168,169,170,171,172,173,174,175,176,177,178,179,180,181,182,183,184,185,186,187,188,189,190,191,192,193,194,195,196,197,198,199,200],"tree_info":[0,0,0,0,0,0,0,0,0,0,0,0,0,0,0,0,0,0,0,0,0,0,0,0,0,0,0,0,0,0,0,0,0,0,0,0,0,0,0,0,0,0,0,0,0,0,0,0,0,0,0,0,0,0,0,0,0,0,0,0,0,0,0,0,0,0,0,0,0,0,0,0,0,0,0,0,0,0,0,0,0,0,0,0,0,0,0,0,0,0,0,0,0,0,0,0,0,0,0,0,0,0,0,0,0,0,0,0,0,0,0,0,0,0,0,0,0,0,0,0,0,0,0,0,0,0,0,0,0,0,0,0,0,0,0,0,0,0,0,0,0,0,0,0,0,0,0,0,0,0,0,0,0,0,0,0,0,0,0,0,0,0,0,0,0,0,0,0,0,0,0,0,0,0,0,0,0,0,0,0,0,0,0,0,0,0,0,0,0,0,0,0,0,0,0,0,0,0,0,0],"trees":[{"base_weights":[-2.666142E-3,-1.1677717E0,1.049528E0,1.2023518E0,-1.4132168E0,5.109128E-1,1.9977027E-1,-1.8843931E-1,1.4840086E-1,-1.997116E-1,-1.0946709E-1,1.3738415E-1,-1.7429907E-2],"categories":[],"categories_nodes":[],"categories_segments":[],"categories_sizes":[],"default_left":[0,0,0,0,0,0,0,0,0,0,0,0,0],"id":0,"left_children":[1,3,5,7,9,11,-1,-1,-1,-1,-1,-1,-1],"loss_changes":[1.4026756E4,3.1624326E3,3.0656592E3,4.4880518E2,9.079746E2,2.2706016E3,0E0,0E0,0E0,0E0,0E0,0E0,0E0],"parents":[2147483647,0,0,1,1,2,2,3,3,4,4,5,5],"right_children":[2,4,6,8,10,12,-1,-1,-1,-1,-1,-1,-1],"split_conditions":[4.0731242E-1,-9.372872E-2,1.4461659E0,-6.3154113E-1,-6.3154113E-1,-9.372785E-2,1.9977027E-1,-1.8843931E-1,1.4840086E-1,-1.997116E-1,-1.0946709E-1,1.3738415E-1,-1.7429907E-2],"split_indices":[8,11,8,8,8,11,0,0,0,0,0,0,0],"split_type":[0,0,0,0,0,0,0,0,0,0,0,0,0],"sum_hessian":[1.143775E4,5.428E3,6.00975E3,5.0825E2,4.91975E3,3.83525E3,2.1745E3,4.125E1,4.67E2,1.73175E3,3.188E3,1.69725E3,2.138E3],"tree_param":{"num_deleted":"0","num_feature":"30","num_nodes":"13","size_leaf_vector":"1"}},{"base_weights":[-8.827897E-3,9.868013E-1,-1.0552592E0,-1.8085761E-1,1.1972162E0,-1.295208E0,1.8081759E-1,1.8501145E-1,7.948252E-2,-9.715034E-2,-1.887402E-1],"categories":[],"categories_nodes":[],"categories_segments":[],"categories_sizes":[],"default_left":[0,0,0,0,0,0,0,0,0,0,0],"id":1,"left_children":[1,3,5,-1,7,9,-1,-1,-1,-1,-1],"loss_changes":[1.1915884E4,3.4506982E3,3.835837E3,0E0,1.4266665E3,9.8014453E2,0E0,0E0,0E0,0E0,0E0],"parents":[2147483647,0,0,1,1,2,2,4,4,5,5],"right_children":[2,4,6,-1,8,10,-1,-1,-1,-1,-1],"split_conditions":[9.154767E-2,-6.3154113E-1,1.4461659E0,-1.8085761E-1,-4.2799634E-1,1.6501797E0,1.8081759E-1,1.8501145E-1,7.948252E-2,-9.715034E-2,-1.887402E-1],"split_indices":[9,8,8,0,9,9,0,0,0,0,0],"split_type":[0,0,0,0,0,0,0,0,0,0,0],"sum_hessian":[1.1433087E4,5.858328E3,5.5747593E3,4.0870505E2,5.449623E3,5.145061E3,4.296986E2,2.0742974E3,3.3753257E3,3.3311567E3,1.8139042E3],"tree_param":{"num_deleted":"0","num_feature":"30","num_nodes":"11","size_leaf_vector":"1"}},{"base_weights":[2.2473568E-3,8.8910997E-1,-9.833256E-1,-8.6287224E-1,1.1251408E0,-6.1059254E-1,-1.7348705E-1,1.6669391E-1,-1.1952829E-1,1.7014055E-1,7.7905394E-2,-1.1792606E-1,4.556813E-3],"categories":[],"categories_nodes":[],"categories_segments":[],"categories_sizes":[],"default_left":[0,0,0,0,0,0,0,0,0,0,0,0,0],"id":2,"left_children":[1,3,5,7,9,11,-1,-1,-1,-1,-1,-1,-1],"loss_changes":[9.857982E3,2.4572876E3,1.4917925E3,5.9680426E2,1.0386255E3,1.3350293E3,0E0,0E0,0E0,0E0,0E0,0E0,0E0],"parents":[2147483647,0,0,1,1,2,2,3,3,4,4,5,5],"right_children":[2,4,6,8,10,12,-1,-1,-1,-1,-1,-1,-1],"split_conditions":[6.110917E-1,-1.0776955E-1,1.6501797E0,-4.2799634E-1,-4.2799634E-1,-1.0776851E-1,-1.7348705E-1,1.6669391E-1,-1.1952829E-1,1.7014055E-1,7.7905394E-2,-1.1792606E-1,4.556813E-3],"split_indices":[9,10,9,9,9,10,0,0,0,0,0,0,0],"split_type":[0,0,0,0,0,0,0,0,0,0,0,0,0],"sum_hessian":[1.1274389E4,5.935011E3,5.339378E3,7.0351245E2,5.2314985E3,3.572521E3,1.7668569E3,8.042213E1,6.2309033E2,1.9589517E3,3.2725469E3,1.91382E3,1.6587009E3],"tree_param":{"num_deleted":"0","num_feature":"30","num_nodes":"13","size_leaf_vector":"1"}},{"base_weights":[-3.9041587E-3,-9.519517E-1,8.4110284E-1,1.5959325E0,-1.1688695E0,1.0302873E0,-1.6739225E-1,-3.8258858E-2,1.6062368E-1,-1.6158071E-1,-9.330515E-2,6.5039285E-2,1.6457085E-1],"categories":[],"categories_nodes":[],"categories_segments":[],"categories_sizes":[],"default_left":[0,0,0,0,0,0,0,0,0,0,0,0,0],"id":3,"left_children":[1,3,5,7,9,11,-1,-1,-1,-1,-1,-1,-1],"loss_changes":[8.870191E3,2.8874995E3,2.7880312E3,1.0809814E1,5.01458E2,1.2687681E3,0E0,0E0,0E0,0E0,0E0,0E0,0E0],"parents":[2147483647,0,0,1,1,2,2,3,3,4,4,5,5],"right_children":[2,4,6,8,10,12,-1,-1,-1,-1,-1,-1,-1],"split_conditions":[4.0731242E-1,-4.2799634E-1,1.6501797E0,-6.3154113E-1,-6.3154113E-1,1.4461659E0,-1.6739225E-1,-3.8258858E-2,1.6062368E-1,-1.6158071E-1,-9.330515E-2,6.5039285E-2,1.6457085E-1],"split_indices":[8,9,9,8,8,8,0,0,0,0,0,0,0],"split_type":[0,0,0,0,0,0,0,0,0,0,0,0,0],"sum_hessian":[1.1068283E4,5.2165522E3,5.8517305E3,4.0791525E2,4.808637E3,5.443816E3,4.0791452E2,1.2362783E0,4.06679E2,1.6553555E3,3.1532815E3,3.369556E3,2.0742603E3],"tree_param":{"num_deleted":"0","num_feature":"30","num_nodes":"13","size_leaf_vector":"1"}},{"base_weights":[1.7476405E-3,-8.8621384E-1,7.621546E-1,1.4960114E0,-1.081323E0,9.3699825E-1,-1.5684019E-1,-6.31627E-2,1.5131336E-1,-1.523633E-1,-8.481022E-2,5.7661276E-2,1.5480779E-1],"categories":[],"categories_nodes":[],"categories_segments":[],"categories_sizes":[],"default_left":[0,0,0,0,0,0,0,0,0,0,0,0,0],"id":4,"left_children":[1,3,5,7,9,11,-1,-1,-1,-1,-1,-1,-1],"loss_changes":[7.3180625E3,2.32643E3,2.381654E3,1.6596436E1,4.7186475E2,1.1926318E3,0E0,0E0,0E0,0E0,0E0,0E0,0E0],"parents":[2147483647,0,0,1,1,2,2,3,3,4,4,5,5],"right_children":[2,4,6,8,10,12,-1,-1,-1,-1,-1,-1,-1],"split_conditions":[-1.12114355E-1,-4.2799634E-1,1.6501797E0,-6.3154113E-1,-6.3154113E-1,1.4461659E0,-1.5684019E-1,-6.31627E-2,1.5131336E-1,-1.523633E-1,-8.481022E-2,5.7661276E-2,1.5480779E-1],"split_indices":[8,9,9,8,8,8,0,0,0,0,0,0,0],"split_type":[0,0,0,0,0,0,0,0,0,0,0,0,0],"sum_hessian":[1.0834352E4,4.997223E3,5.837129E3,3.7690207E2,4.6203213E3,5.431286E3,4.058425E2,1.969642E0,3.7493243E2,1.5898231E3,3.030498E3,3.4199106E3,2.0113756E3],"tree_param":{"num_deleted":"0","num_feature":"30","num_nodes":"13","size_leaf_vector":"1"}},{"base_weights":[-6.4101717E-3,-8.093841E-1,7.072232E-1,7.220964E-1,-9.9289507E-1,3.174141E-1,1.4690854E-1,-1.3971864E-1,9.474259E-2,-1.4491905E-1,-7.659072E-2,1.2251307E-1,-2.3476675E-3],"categories":[],"categories_nodes":[],"categories_segments":[],"categories_sizes":[],"default_left":[0,0,0,0,0,0,0,0,0,0,0,0,0],"id":5,"left_children":[1,3,5,7,9,11,-1,-1,-1,-1,-1,-1,-1],"loss_changes":[6.0479307E3,1.3976077E3,1.6565967E3,2.5627045E2,4.5510107E2,1.1460227E3,0E0,0E0,0E0,0E0,0E0,0E0,0E0],"parents":[2147483647,0,0,1,1,2,2,3,3,4,4,5,5],"right_children":[2,4,6,8,10,12,-1,-1,-1,-1,-1,-1,-1],"split_conditions":[4.0731242E-1,-9.372863E-2,1.4461659E0,-6.3154113E-1,-6.3154113E-1,-9.3728475E-2,1.4690854E-1,-1.3971864E-1,9.474259E-2,-1.4491905E-1,-7.659072E-2,1.2251307E-1,-2.3476675E-3],"split_indices":[8,11,8,8,8,11,0,0,0,0,0,0,0],"split_type":[0,0,0,0,0,0,0,0,0,0,0,0,0],"sum_hessian":[1.0550144E4,4.96486E3,5.585283E3,5.300486E2,4.434811E3,3.697561E3,1.8877224E3,4.95143E1,4.8053427E2,1.4682108E3,2.9666003E3,1.00888074E3,2.6886802E3],"tree_param":{"num_deleted":"0","num_feature":"30","num_nodes":"13","size_leaf_vector":"1"}},{"base_weights":[6.9250087E-3,7.3721147E-1,-7.96629E-1,-1.381116E-1,8.858629E-1,-9.64406E-1,1.4169766E-1,1.4200956E-1,6.025107E-2,-7.162332E-2,-1.4442137E-1],"categories":[],"categories_nodes":[],"categories_segments":[],"categories_sizes":[],"default_left":[0,0,0,0,0,0,0,0,0,0,0],"id":6,"left_children":[1,3,5,-1,7,9,-1,-1,-1,-1,-1],"loss_changes":[6.0066177E3,1.690739E3,1.8120137E3,0E0,7.551223E2,5.353164E2,0E0,0E0,0E0,0E0,0E0],"parents":[2147483647,0,0,1,1,2,2,4,4,5,5],"right_children":[2,4,6,-1,8,10,-1,-1,-1,-1,-1],"split_conditions":[6.110917E-1,-6.3154113E-1,1.4461659E0,-1.381116E-1,-4.2799634E-1,1.6501797E0,1.4169766E-1,1.4200956E-1,6.025107E-2,-7.162332E-2,-1.4442137E-1],"split_indices":[9,8,8,0,9,9,0,0,0,0,0],"split_type":[0,0,0,0,0,0,0,0,0,0,0],"sum_hessian":[1.0231897E4,5.3610625E3,4.870835E3,3.5000967E2,5.0110527E3,4.5291357E3,3.4169888E2,1.7326877E3,3.2783652E3,2.9897861E3,1.5393497E3],"tree_param":{"num_deleted":"0","num_feature":"30","num_nodes":"11","size_leaf_vector":"1"}},{"base_weights":[2.1826252E-3,6.8563706E-1,-7.199999E-1,1.3615134E-1,3.6663708E-1,-4.3822283E-1,-1.3842146E-1,-4.3110292E-2,6.6331804E-2,-1.0290557E-1,-1.5134272E-2],"categories":[],"categories_nodes":[],"categories_segments":[],"categories_sizes":[],"default_left":[0,0,0,0,0,0,0,0,0,0,0],"id":7,"left_children":[1,3,5,-1,7,9,-1,-1,-1,-1,-1],"loss_changes":[4.91054E3,1.0994917E3,9.0220215E2,0E0,8.2366516E2,5.748018E2,0E0,0E0,0E0,0E0,0E0],"parents":[2147483647,0,0,1,1,2,2,4,4,5,5],"right_children":[2,4,6,-1,8,10,-1,-1,-1,-1,-1],"split_conditions":[9.154767E-2,-4.2799634E-1,1.6501797E0,1.3615134E-1,-1.0776898E-1,-1.07769266E-1,-1.3842146E-1,-4.3110292E-2,6.6331804E-2,-1.0290557E-1,-1.5134272E-2],"split_indices":[9,9,9,0,10,10,0,0,0,0,0],"split_type":[0,0,0,0,0,0,0,0,0,0,0],"sum_hessian":[9.944915E3,5.110222E3,4.834693E3,1.6354554E3,3.4747666E3,3.3979988E3,1.4366942E3,9.4079724E2,2.5339695E3,1.1078038E3,2.2901948E3],"tree_param":{"num_deleted":"0","num_feature":"30","num_nodes":"11","size_leaf_vector":"1"}},{"base_weights":[2.2068447E-3,6.275909E-1,-6.865028E-1,-1.2273705E-1,9.794972E-1,-8.456181E-1,1.3660757E-1,1.2782873E-1,-4.424413E-2,7.565635E-2,1.3346598E-1,-6.150776E-2,-1.33452E-1],"categories":[],"categories_nodes":[],"categories_segments":[],"categories_sizes":[],"default_left":[0,0,0,0,0,0,0,0,0,0,0,0,0],"id":8,"left_children":[1,3,5,7,9,11,-1,-1,-1,-1,-1,-1,-1],"loss_changes":[4.1575312E3,1.337113E3,1.5018867E3,7.242554E2,2.6869653E2,4.77052E2,0E0,0E0,0E0,0E0,0E0,0E0,0E0],"parents":[2147483647,0,0,1,1,2,2,3,3,4,4,5,5],"right_children":[2,4,6,8,10,12,-1,-1,-1,-1,-1,-1,-1],"split_conditions":[6.110917E-1,-1.12114355E-1,1.4461659E0,-4.2799634E-1,1.4461659E0,1.6501797E0,1.3660757E-1,1.2782873E-1,-4.424413E-2,7.565635E-2,1.3346598E-1,-6.150776E-2,-1.33452E-1],"split_indices":[9,8,8,9,8,9,0,0,0,0,0,0,0],"split_type":[0,0,0,0,0,0,0,0,0,0,0,0,0],"sum_hessian":[9.648919E3,5.0578022E3,4.591117E3,1.6142947E3,3.4435078E3,4.262363E3,3.2875394E2,2.9823395E2,1.3160607E3,2.1211492E3,1.3223585E3,2.9009763E3,1.3613868E3],"tree_param":{"num_deleted":"0","num_feature":"30","num_nodes":"13","size_leaf_vector":"1"}},{"base_weights":[4.113889E-3,5.8209115E-1,-6.326214E-1,1.281215E0,2.8932944E-1,-3.696318E-1,-1.2923321E-1,1.2847848E-1,-0E0,-8.951873E-2,4.4203218E-2,-9.264501E-2,-9.8447995E-3],"categories":[],"categories_nodes":[],"categories_segments":[],"categories_sizes":[],"default_left":[0,0,0,0,0,0,0,0,0,0,0,0,0],"id":9,"left_children":[1,3,5,7,9,11,-1,-1,-1,-1,-1,-1,-1],"loss_changes":[3.4339534E3,9.989724E2,7.67542E2,5.5700684E0,6.2467896E2,4.7862534E2,0E0,0E0,0E0,0E0,0E0,0E0,0E0],"parents":[2147483647,0,0,1,1,2,2,3,3,4,4,5,5],"right_children":[2,4,6,8,10,12,-1,-1,-1,-1,-1,-1,-1],"split_conditions":[6.110917E-1,-4.2799634E-1,1.6501797E0,-9.372743E-2,-1.0776973E-1,-1.0776922E-1,-1.2923321E-1,1.2847848E-1,-0E0,-8.951873E-2,4.4203218E-2,-9.264501E-2,-9.8447995E-3],"split_indices":[9,9,9,11,10,10,0,0,0,0,0,0,0],"split_type":[0,0,0,0,0,0,0,0,0,0,0,0,0],"sum_hessian":[9.327062E3,4.8900283E3,4.4370337E3,1.4403236E3,3.4497048E3,3.1756973E3,1.261336E3,1.4356942E3,4.629452E0,3.92078E2,3.0576267E3,1.0373007E3,2.1383967E3],"tree_param":{"num_deleted":"0","num_feature":"30","num_nodes":"13","size_leaf_vector":"1"}},{"base_weights":[6.083276E-3,-6.492068E-1,5.752974E-1,-1.2675259E-1,-4.1504195E-1,2.6355958E-1,1.2854804E-1,3.285854E-2,-6.278417E-2,1.0534948E-1,7.34231E-3],"categories":[],"categories_nodes":[],"categories_segments":[],"categories_sizes":[],"default_left":[0,0,0,0,0,0,0,0,0,0,0],"id":10,"left_children":[1,3,5,-1,7,9,-1,-1,-1,-1,-1],"loss_changes":[3.368108E3,6.049137E2,1.0677928E3,0E0,4.8306165E2,5.0372076E2,0E0,0E0,0E0,0E0,0E0],"parents":[2147483647,0,0,1,1,2,2,4,4,5,5],"right_children":[2,4,6,-1,8,10,-1,-1,-1,-1,-1],"split_conditions":[4.0731242E-1,-6.3154113E-1,1.4461659E0,-1.2675259E-1,-9.372817E-2,-9.372869E-2,1.2854804E-1,3.285854E-2,-6.278417E-2,1.0534948E-1,7.34231E-3],"split_indices":[8,8,8,0,11,11,0,0,0,0,0],"split_type":[0,0,0,0,0,0,0,0,0,0,0],"sum_hessian":[9.025966E3,4.194798E3,4.8311685E3,1.1486522E3,3.0461455E3,3.3603008E3,1.4708678E3,6.7646295E2,2.3696826E3,6.4912494E2,2.7111758E3],"tree_param":{"num_deleted":"0","num_feature":"30","num_nodes":"11","size_leaf_vector":"1"}},{"base_weights":[4.702252E-3,-6.059608E-1,5.363572E-1,1.2076759E0,-7.348067E-1,6.562717E-1,-1.2759814E-1,-4.1260205E-2,1.2232027E-1,-1.23457454E-1,-5.37765E-2,3.8500708E-2,1.2509516E-1],"categories":[],"categories_nodes":[],"categories_segments":[],"categories_sizes":[],"default_left":[0,0,0,0,0,0,0,0,0,0,0,0,0],"id":11,"left_children":[1,3,5,7,9,11,-1,-1,-1,-1,-1,-1,-1],"loss_changes":[2.8323403E3,9.499293E2,1.0148047E3,8.60022E0,3.70318E2,7.0348096E2,0E0,0E0,0E0,0E0,0E0,0E0,0E0],"parents":[2147483647,0,0,1,1,2,2,3,3,4,4,5,5],"right_children":[2,4,6,8,10,12,-1,-1,-1,-1,-1,-1,-1],"split_conditions":[4.0731242E-1,-4.2799634E-1,1.6501797E0,-6.3154113E-1,-6.3154113E-1,1.4461659E0,-1.2759814E-1,-4.1260205E-2,1.2232027E-1,-1.23457454E-1,-5.37765E-2,3.8500708E-2,1.2509516E-1],"split_indices":[8,9,9,8,8,8,0,0,0,0,0,0,0],"split_type":[0,0,0,0,0,0,0,0,0,0,0,0,0],"sum_hessian":[8.720177E3,4.057519E3,4.662658E3,2.6751184E2,3.790007E3,4.3750107E3,2.8764767E2,1.442374E0,2.660695E2,1.0673138E3,2.7226934E3,3.007918E3,1.3670925E3],"tree_param":{"num_deleted":"0","num_feature":"30","num_nodes":"13","size_leaf_vector":"1"}},{"base_weights":[-3.9151064E-3,5.2420795E-1,-5.5933875E-1,-1.2145346E-1,6.2915105E-1,-6.900436E-1,1.2447876E-1,1.2106904E-1,3.861544E-2,-4.861903E-2,-1.2222121E-1],"categories":[],"categories_nodes":[],"categories_segments":[],"categories_sizes":[],"default_left":[0,0,0,0,0,0,0,0,0,0,0],"id":12,"left_children":[1,3,5,-1,7,9,-1,-1,-1,-1,-1],"loss_changes":[2.483284E3,7.9259607E2,9.7436597E2,0E0,5.7592505E2,4.147787E2,0E0,0E0,0E0,0E0,0E0],"parents":[2147483647,0,0,1,1,2,2,4,4,5,5],"right_children":[2,4,6,-1,8,10,-1,-1,-1,-1,-1],"split_conditions":[9.154767E-2,-6.3154113E-1,1.4461659E0,-1.2145346E-1,-4.2799634E-1,1.6501797E0,1.2447876E-1,1.2106904E-1,3.861544E-2,-4.861903E-2,-1.2222121E-1],"split_indices":[9,8,8,0,9,9,0,0,0,0,0],"split_type":[0,0,0,0,0,0,0,0,0,0,0],"sum_hessian":[8.461658E3,4.3365625E3,4.125096E3,2.4509225E2,4.09147E3,3.8480996E3,2.7699683E2,1.2022255E3,2.8892444E3,2.786431E3,1.0616688E3],"tree_param":{"num_deleted":"0","num_feature":"30","num_nodes":"11","size_leaf_vector":"1"}},{"base_weights":[-2.8002684E-3,-5.6477404E-1,4.6281117E-1,-1.19164586E-1,-3.5224542E-1,1.908203E-1,1.2055411E-1,-2.8720377E-3,-6.838539E-2,5.9100684E-2,-7.6095737E-3],"categories":[],"categories_nodes":[],"categories_segments":[],"categories_sizes":[],"default_left":[0,0,0,0,0,0,0,0,0,0,0],"id":13,"left_children":[1,3,5,-1,7,9,-1,-1,-1,-1,-1],"loss_changes":[2.1365474E3,4.9064014E2,9.000088E2,0E0,2.9617383E2,3.5000598E2,0E0,0E0,0E0,0E0,0E0],"parents":[2147483647,0,0,1,1,2,2,4,4,5,5],"right_children":[2,4,6,-1,8,10,-1,-1,-1,-1,-1],"split_conditions":[-1.12114355E-1,-6.3154113E-1,1.4461659E0,-1.19164586E-1,2.7434942E-1,-1.4826083E-1,1.2055411E-1,-2.8720377E-3,-6.838539E-2,5.9100684E-2,-7.6095737E-3],"split_indices":[8,8,8,0,1,1,0,0,0,0,0],"split_type":[0,0,0,0,0,0,0,0,0,0,0],"sum_hessian":[8.1609263E3,3.6985957E3,4.4623306E3,9.3292676E2,2.765669E3,3.2690505E3,1.1932799E3,1.4025232E3,1.3631458E3,1.3085153E3,1.9605353E3],"tree_param":{"num_deleted":"0","num_feature":"30","num_nodes":"11","size_leaf_vector":"1"}},{"base_weights":[-1.6515629E-3,-5.222508E-1,4.47529E-1,1.1437395E0,-6.352474E-1,1.878968E-1,1.181788E-1,-4.5005027E-2,1.1641488E-1,-1.16868794E-1,-4.5913264E-2,1.2116923E-1,3.458115E-4],"categories":[],"categories_nodes":[],"categories_segments":[],"categories_sizes":[],"default_left":[0,0,0,0,0,0,0,0,0,0,0,0,0],"id":14,"left_children":[1,3,5,7,9,11,-1,-1,-1,-1,-1,-1,-1],"loss_changes":[1.8626355E3,6.95637E2,8.1311536E2,9.391296E0,3.2213843E2,5.95747E2,0E0,0E0,0E0,0E0,0E0,0E0,0E0],"parents":[2147483647,0,0,1,1,2,2,3,3,4,4,5,5],"right_children":[2,4,6,8,10,12,-1,-1,-1,-1,-1,-1,-1],"split_conditions":[4.0731242E-1,-4.2799634E-1,1.4461659E0,-6.3154113E-1,-6.3154113E-1,-4.2799634E-1,1.181788E-1,-4.5005027E-2,1.1641488E-1,-1.16868794E-1,-4.5913264E-2,1.2116923E-1,3.458115E-4],"split_indices":[8,9,8,8,8,9,0,0,0,0,0,0,0],"split_type":[0,0,0,0,0,0,0,0,0,0,0,0,0],"sum_hessian":[7.9610054E3,3.688242E3,4.272763E3,2.3254655E2,3.4556956E3,3.1594597E3,1.1133035E3,1.7884066E0,2.3075815E2,8.535117E2,2.6021838E3,4.79768E2,2.679692E3],"tree_param":{"num_deleted":"0","num_feature":"30","num_nodes":"13","size_leaf_vector":"1"}},{"base_weights":[3.0418644E-3,4.5831814E-1,-4.935756E-1,1.1524787E0,2.3408625E-1,-5.947731E-1,1.1636714E-1,-4.3199535E-2,1.1572405E-1,4.883029E-3,1.18329875E-1,-3.9041836E-2,-1.1802349E-1],"categories":[],"categories_nodes":[],"categories_segments":[],"categories_sizes":[],"default_left":[0,0,0,0,0,0,0,0,0,0,0,0,0],"id":15,"left_children":[1,3,5,7,9,11,-1,-1,-1,-1,-1,-1,-1],"loss_changes":[1.7408529E3,6.2350214E2,6.182545E2,9.114868E0,5.333418E2,4.1285938E2,0E0,0E0,0E0,0E0,0E0,0E0,0E0],"parents":[2147483647,0,0,1,1,2,2,3,3,4,4,5,5],"right_children":[2,4,6,8,10,12,-1,-1,-1,-1,-1,-1,-1],"split_conditions":[6.110917E-1,-4.2799634E-1,1.4461659E0,-6.3154113E-1,1.4461659E0,1.6501797E0,1.1636714E-1,-4.3199535E-2,1.1572405E-1,4.883029E-3,1.18329875E-1,-3.9041836E-2,-1.1802349E-1],"split_indices":[9,9,8,8,8,9,0,0,0,0,0,0,0],"split_type":[0,0,0,0,0,0,0,0,0,0,0,0,0],"sum_hessian":[7.695699E3,4.0160942E3,3.6796047E3,9.77447E2,3.0386472E3,3.4696226E3,2.0998209E2,1.7618009E0,9.7568524E2,2.5450845E3,4.9356284E2,2.5756401E3,8.939824E2],"tree_param":{"num_deleted":"0","num_feature":"30","num_nodes":"13","size_leaf_vector":"1"}},{"base_weights":[3.962387E-3,-4.6862212E-1,4.110488E-1,1.1038424E0,-5.647925E-1,1.8744646E-1,1.1428732E-1,-3.4654804E-2,1.1235323E-1,-1.1437815E-1,-3.8686793E-2,2.9841114E-2,-1.1842473E-1],"categories":[],"categories_nodes":[],"categories_segments":[],"categories_sizes":[],"default_left":[0,0,0,0,0,0,0,0,0,0,0,0,0],"id":16,"left_children":[1,3,5,7,9,11,-1,-1,-1,-1,-1,-1,-1],"loss_changes":[1.4351195E3,5.2260626E2,6.5424146E2,7.23822E0,3.3281677E2,4.677266E2,0E0,0E0,0E0,0E0,0E0,0E0,0E0],"parents":[2147483647,0,0,1,1,2,2,3,3,4,4,5,5],"right_children":[2,4,6,8,10,12,-1,-1,-1,-1,-1,-1,-1],"split_conditions":[4.0731242E-1,-4.2799634E-1,1.4461659E0,-6.3154113E-1,-6.3154113E-1,1.6501797E0,1.1428732E-1,-3.4654804E-2,1.1235323E-1,-1.1437815E-1,-3.8686793E-2,2.9841114E-2,-1.1842473E-1],"split_indices":[8,9,8,8,8,9,0,0,0,0,0,0,0],"split_type":[0,0,0,0,0,0,0,0,0,0,0,0,0],"sum_hessian":[7.456008E3,3.4491494E3,4.0068584E3,1.9698177E2,3.2521675E3,3.0720881E3,9.347702E2,1.5134119E0,1.9546837E2,7.606006E2,2.491567E3,2.84429E3,2.2779807E2],"tree_param":{"num_deleted":"0","num_feature":"30","num_nodes":"13","size_leaf_vector":"1"}},{"base_weights":[8.216321E-4,4.0846798E-1,-4.463112E-1,1.1214397E0,2.0417482E-1,-2.3840925E-1,-1.1481496E-1,-4.4866115E-2,1.12729155E-1,4.569262E-3,1.142926E-1,-3.3804957E-2,1.1243322E-1],"categories":[],"categories_nodes":[],"categories_segments":[],"categories_sizes":[],"default_left":[0,0,0,0,0,0,0,0,0,0,0,0,0],"id":17,"left_children":[1,3,5,7,9,11,-1,-1,-1,-1,-1,-1,-1],"loss_changes":[1.3137671E3,5.4757263E2,4.9947076E2,9.394287E0,4.3538345E2,3.604314E2,0E0,0E0,0E0,0E0,0E0,0E0,0E0],"parents":[2147483647,0,0,1,1,2,2,3,3,4,4,5,5],"right_children":[2,4,6,8,10,12,-1,-1,-1,-1,-1,-1,-1],"split_conditions":[6.110917E-1,-4.2799634E-1,1.6501797E0,-6.3154113E-1,1.4461659E0,1.4461659E0,-1.1481496E-1,-4.4866115E-2,1.12729155E-1,4.569262E-3,1.142926E-1,-3.3804957E-2,1.1243322E-1],"split_indices":[9,9,9,8,8,8,0,0,0,0,0,0,0],"split_type":[0,0,0,0,0,0,0,0,0,0,0,0,0],"sum_hessian":[7.2039336E3,3.7696199E3,3.4343137E3,8.3647955E2,2.9331401E3,2.65264E3,7.816737E2,1.9095792E0,8.3456995E2,2.5121892E3,4.2095114E2,2.4739858E3,1.7865407E2],"tree_param":{"num_deleted":"0","num_feature":"30","num_nodes":"13","size_leaf_vector":"1"}},{"base_weights":[2.5402238E-3,3.8738313E-1,-4.194747E-1,1.1097281E0,1.9471845E-1,-2.2402126E-1,-1.1314521E-1,1.1136023E-1,-4.438627E-3,-3.889117E-2,3.167146E-2,-9.393763E-2,-1.1893645E-2],"categories":[],"categories_nodes":[],"categories_segments":[],"categories_sizes":[],"default_left":[0,0,0,0,0,0,0,0,0,0,0,0,0],"id":18,"left_children":[1,3,5,7,9,11,-1,-1,-1,-1,-1,-1,-1],"loss_changes":[1.1430198E3,5.107442E2,4.6510986E2,4.628174E0,2.0740721E2,1.9691132E2,0E0,0E0,0E0,0E0,0E0,0E0,0E0],"parents":[2147483647,0,0,1,1,2,2,3,3,4,4,5,5],"right_children":[2,4,6,8,10,12,-1,-1,-1,-1,-1,-1,-1],"split_conditions":[6.110917E-1,-4.2799634E-1,1.6501797E0,-9.372702E-2,-7.516335E-1,-1.0776983E-1,-1.1314521E-1,1.1136023E-1,-4.438627E-3,-3.889117E-2,3.167146E-2,-9.393763E-2,-1.1893645E-2],"split_indices":[9,9,9,11,0,10,0,0,0,0,0,0,0],"split_type":[0,0,0,0,0,0,0,0,0,0,0,0,0],"sum_hessian":[7.034087E3,3.6803992E3,3.3536875E3,7.7184845E2,2.9085505E3,2.6344946E3,7.191929E2,7.701997E2,1.6487635E0,5.0068744E2,2.4078633E3,3.3418268E2,2.300312E3],"tree_param":{"num_deleted":"0","num_feature":"30","num_nodes":"13","size_leaf_vector":"1"}},{"base_weights":[-2.8878013E-3,1.0941614E0,-1.3102217E-1,1.09765194E-1,-1.0179375E-2,-1.1277786E-2,-1.1166399E-1,-8.245708E-2,7.5894184E-3],"categories":[],"categories_nodes":[],"categories_segments":[],"categories_sizes":[],"default_left":[0,0,0,0,0,0,0,0,0],"id":19,"left_children":[1,3,5,-1,-1,7,-1,-1,-1],"loss_changes":[9.589214E2,4.1972656E0,7.205706E2,0E0,0E0,3.8765744E2,0E0,0E0,0E0],"parents":[2147483647,0,0,1,1,2,2,5,5],"right_children":[2,4,6,-1,-1,8,-1,-1,-1],"split_conditions":[-4.2799634E-1,-9.372653E-2,1.6501797E0,1.09765194E-1,-1.0179375E-2,-1.0776983E-1,-1.1166399E-1,-8.245708E-2,7.5894184E-3],"split_indices":[9,11,9,0,0,10,0,0,0],"split_type":[0,0,0,0,0,0,0,0,0],"sum_hessian":[6.824491E3,7.1133813E2,6.113153E3,7.102656E2,1.0725064E0,5.4536206E3,6.595322E2,5.274254E2,4.9261953E3],"tree_param":{"num_deleted":"0","num_feature":"30","num_nodes":"9","size_leaf_vector":"1"}},{"base_weights":[9.267036E-3,-1.2665239E-1,1.10772185E-1,1.089848E0,-2.2851163E-1,-2.3981016E-2,1.09670356E-1,-1.1085182E-1,-1.2069088E-2],"categories":[],"categories_nodes":[],"categories_segments":[],"categories_sizes":[],"default_left":[0,0,0,0,0,0,0,0,0],"id":20,"left_children":[1,3,-1,5,7,-1,-1,-1,-1],"loss_changes":[9.996083E2,7.370953E2,0E0,5.5706177E0,5.197966E2,0E0,0E0,0E0,0E0],"parents":[2147483647,0,0,1,1,3,3,4,4],"right_children":[2,4,-1,6,8,-1,-1,-1,-1],"split_conditions":[1.4461659E0,-4.2799634E-1,1.10772185E-1,-6.3154113E-1,-6.3154113E-1,-2.3981016E-2,1.09670356E-1,-1.1085182E-1,-1.2069088E-2],"split_indices":[8,9,0,8,8,0,0,0,0],"split_type":[0,0,0,0,0,0,0,0,0],"sum_hessian":[6.684789E3,5.949478E3,7.353111E2,4.5741187E2,5.492066E3,1.2493984E0,4.5616248E2,5.9641736E2,4.895649E3],"tree_param":{"num_deleted":"0","num_feature":"30","num_nodes":"9","size_leaf_vector":"1"}},{"base_weights":[5.760486E-4,-1.2456021E-1,1.0957042E-1,1.0807145E0,-2.1731958E-1,-3.6886346E-2,1.0902232E-1,-1.1023343E-2,-1.1017289E-1],"categories":[],"categories_nodes":[],"categories_segments":[],"categories_sizes":[],"default_left":[0,0,0,0,0,0,0,0,0],"id":21,"left_children":[1,3,-1,5,7,-1,-1,-1,-1],"loss_changes":[8.962334E2,6.5499194E2,0E0,7.2938232E0,5.142888E2,0E0,0E0,0E0,0E0],"parents":[2147483647,0,0,1,1,3,3,4,4],"right_children":[2,4,-1,6,8,-1,-1,-1,-1],"split_conditions":[1.4461659E0,-4.2799634E-1,1.0957042E-1,-6.3154113E-1,1.6501797E0,-3.6886346E-2,1.0902232E-1,-1.1023343E-2,-1.1017289E-1],"split_indices":[8,9,0,8,9,0,0,0,0],"split_type":[0,0,0,0,0,0,0,0,0],"sum_hessian":[6.52885E3,5.8600977E3,6.687524E2,4.164784E2,5.4436196E3,1.5362186E0,4.1494217E2,4.8586978E3,5.849215E2],"tree_param":{"num_deleted":"0","num_feature":"30","num_nodes":"9","size_leaf_vector":"1"}},{"base_weights":[-9.496583E-3,-1.2642868E-1,1.0847818E-1,1.0605716E0,-2.1104382E-1,-4.6290696E-2,1.07333496E-1,-1.0946983E-1,-1.1281978E-2],"categories":[],"categories_nodes":[],"categories_segments":[],"categories_sizes":[],"default_left":[0,0,0,0,0,0,0,0,0],"id":22,"left_children":[1,3,-1,5,7,-1,-1,-1,-1],"loss_changes":[8.1336694E2,5.771551E2,0E0,9.035614E0,4.6465695E2,0E0,0E0,0E0,0E0],"parents":[2147483647,0,0,1,1,3,3,4,4],"right_children":[2,4,-1,6,8,-1,-1,-1,-1],"split_conditions":[1.4461659E0,-4.2799634E-1,1.0847818E-1,-6.3154113E-1,-6.3154113E-1,-4.6290696E-2,1.07333496E-1,-1.0946983E-1,-1.1281978E-2],"split_indices":[8,9,0,8,8,0,0,0,0],"split_type":[0,0,0,0,0,0,0,0,0],"sum_hessian":[6.3599473E3,5.748372E3,6.115752E2,3.801837E2,5.3681885E3,1.9216795E0,3.7826202E2,5.339685E2,4.83422E3],"tree_param":{"num_deleted":"0","num_feature":"30","num_nodes":"9","size_leaf_vector":"1"}},{"base_weights":[-2.8244562E-3,-1.0819927E-1,1.075164E-1,-1.0854062E-1,-1.6037848E-2,1.8277457E-2,-2.439038E-2],"categories":[],"categories_nodes":[],"categories_segments":[],"categories_sizes":[],"default_left":[0,0,0,0,0,0,0],"id":23,"left_children":[1,3,-1,-1,5,-1,-1],"loss_changes":[7.0825616E2,5.1116382E2,0E0,0E0,2.3577382E2,0E0,0E0],"parents":[2147483647,0,0,1,1,4,4],"right_children":[2,4,-1,-1,6,-1,-1],"split_conditions":[1.4461659E0,-6.3154113E-1,1.075164E-1,-1.0854062E-1,2.7434942E-1,1.8277457E-2,-2.439038E-2],"split_indices":[8,8,0,0,1,0,0],"split_type":[0,0,0,0,0,0,0],"sum_hessian":[6.239507E3,5.6863823E3,5.531246E2,4.8727704E2,5.1991055E3,2.77443E3,2.4246753E3],"tree_param":{"num_deleted":"0","num_feature":"30","num_nodes":"7","size_leaf_vector":"1"}},{"base_weights":[-2.455947E-4,-9.7262256E-2,1.06650546E-1,-1.0753425E-1,-1.2794554E-2,1.7343251E-2,-2.3181818E-2],"categories":[],"categories_nodes":[],"categories_segments":[],"categories_sizes":[],"default_left":[0,0,0,0,0,0,0],"id":24,"left_children":[1,3,-1,-1,5,-1,-1],"loss_changes":[6.351649E2,4.6443518E2,0E0,0E0,2.1183345E2,0E0,0E0],"parents":[2147483647,0,0,1,1,4,4],"right_children":[2,4,-1,-1,6,-1,-1],"split_conditions":[1.4461659E0,-6.3154113E-1,1.06650546E-1,-1.0753425E-1,2.7434942E-1,1.7343251E-2,-2.3181818E-2],"split_indices":[8,8,0,0,1,0,0],"split_type":[0,0,0,0,0,0,0],"sum_hessian":[6.142657E3,5.633104E3,5.095528E2,4.4499976E2,5.1881045E3,2.801744E3,2.3863606E3],"tree_param":{"num_deleted":"0","num_feature":"30","num_nodes":"7","size_leaf_vector":"1"}},{"base_weights":[4.5511643E-3,1.0113877E-1,-1.08548634E-1,1.2871625E-2,1.0586412E-1,-1.0742328E-1,8.549981E-3],"categories":[],"categories_nodes":[],"categories_segments":[],"categories_sizes":[],"default_left":[0,0,0,0,0,0,0],"id":25,"left_children":[1,3,-1,5,-1,-1,-1],"loss_changes":[6.350694E2,4.6799216E2,0E0,4.006649E2,0E0,0E0,0E0],"parents":[2147483647,0,0,1,1,3,3],"right_children":[2,4,-1,6,-1,-1,-1],"split_conditions":[1.6501797E0,1.4461659E0,-1.08548634E-1,-6.3154113E-1,1.0586412E-1,-1.0742328E-1,8.549981E-3],"split_indices":[9,8,0,8,0,0,0],"split_type":[0,0,0,0,0,0,0],"sum_hessian":[6.0372217E3,5.54832E3,4.8890164E2,5.0828315E3,4.6548837E2,3.1572244E2,4.7671094E3],"tree_param":{"num_deleted":"0","num_feature":"30","num_nodes":"7","size_leaf_vector":"1"}},{"base_weights":[2.1662787E-4,8.8432714E-2,-1.07543044E-1,1.0407759E0,3.0608845E-3,1.0494834E-1,-1.7047942E-2,-6.694334E-3,1.0573556E-1],"categories":[],"categories_nodes":[],"categories_segments":[],"categories_sizes":[],"default_left":[0,0,0,0,0,0,0,0,0],"id":26,"left_children":[1,3,-1,5,7,-1,-1,-1,-1],"loss_changes":[5.5901404E2,4.4247195E2,0E0,5.960022E0,3.7084647E2,0E0,0E0,0E0,0E0],"parents":[2147483647,0,0,1,1,3,3,4,4],"right_children":[2,4,-1,6,8,-1,-1,-1,-1],"split_conditions":[1.6501797E0,-4.2799634E-1,-1.07543044E-1,-9.372743E-2,1.4461659E0,1.0494834E-1,-1.7047942E-2,-6.694334E-3,1.0573556E-1],"split_indices":[9,9,0,11,8,0,0,0,0],"split_type":[0,0,0,0,0,0,0,0,0],"sum_hessian":[5.897616E3,5.4531567E3,4.4445963E2,4.4582095E2,5.0073354E3,4.437238E2,2.0971675E0,4.696422E3,3.1091367E2],"tree_param":{"num_deleted":"0","num_feature":"30","num_nodes":"9","size_leaf_vector":"1"}},{"base_weights":[-2.8797314E-3,7.7509396E-2,-1.0667767E-1,1.0355296E0,-2.0719133E-4,1.04068734E-1,-0E0,-8.854392E-2,4.1103167E-3],"categories":[],"categories_nodes":[],"categories_segments":[],"categories_sizes":[],"default_left":[0,0,0,0,0,0,0,0,0],"id":27,"left_children":[1,3,-1,5,7,-1,-1,-1,-1],"loss_changes":[4.986625E2,4.0378613E2,0E0,2.6959229E0,1.8392871E2,0E0,0E0,0E0,0E0],"parents":[2147483647,0,0,1,1,3,3,4,4],"right_children":[2,4,-1,6,8,-1,-1,-1,-1],"split_conditions":[1.6501797E0,-4.2799634E-1,-1.0667767E-1,-9.372743E-2,-1.0777005E-1,1.04068734E-1,-0E0,-8.854392E-2,4.1103167E-3],"split_indices":[9,9,0,11,10,0,0,0,0],"split_type":[0,0,0,0,0,0,0,0,0],"sum_hessian":[5.8150537E3,5.407381E3,4.076728E2,4.048592E2,5.0025215E3,4.0332556E2,1.5336261E0,2.222971E2,4.7802246E3],"tree_param":{"num_deleted":"0","num_feature":"30","num_nodes":"9","size_leaf_vector":"1"}},{"base_weights":[7.2396416E-3,8.1231296E-2,-1.058411E-1,1.0251762E0,1.1135869E-2,1.0345937E-1,-1.2246418E-2,-2.2236405E-2,1.7421275E-2],"categories":[],"categories_nodes":[],"categories_segments":[],"categories_sizes":[],"default_left":[0,0,0,0,0,0,0,0,0],"id":28,"left_children":[1,3,-1,5,7,-1,-1,-1,-1],"loss_changes":[4.4923978E2,3.5225696E2,0E0,5.144043E0,1.8942079E2,0E0,0E0,0E0,0E0],"parents":[2147483647,0,0,1,1,3,3,4,4],"right_children":[2,4,-1,6,8,-1,-1,-1,-1],"split_conditions":[1.6501797E0,-4.2799634E-1,-1.058411E-1,-9.372743E-2,-4.5526396E-2,1.0345937E-1,-1.2246418E-2,-2.2236405E-2,1.7421275E-2],"split_indices":[9,9,0,11,0,0,0,0,0],"split_type":[0,0,0,0,0,0,0,0,0],"sum_hessian":[5.705663E3,5.337826E3,3.67837E2,3.661068E2,4.9717197E3,3.6418665E2,1.920165E0,2.041607E3,2.9301123E3],"tree_param":{"num_deleted":"0","num_feature":"30","num_nodes":"9","size_leaf_vector":"1"}},{"base_weights":[-1.8382859E-3,-7.4845865E-2,1.0435372E-1,-1.0535826E-1,-9.1165155E-3,-1.8748E-2,1.4114863E-2],"categories":[],"categories_nodes":[],"categories_segments":[],"categories_sizes":[],"default_left":[0,0,0,0,0,0,0],"id":29,"left_children":[1,3,-1,-1,5,-1,-1],"loss_changes":[4.309312E2,3.3926303E2,0E0,0E0,1.3304988E2,0E0,0E0],"parents":[2147483647,0,0,1,1,4,4],"right_children":[2,4,-1,-1,6,-1,-1],"split_conditions":[1.4461659E0,-6.3154113E-1,1.0435372E-1,-1.0535826E-1,4.0731242E-1,-1.8748E-2,1.4114863E-2],"split_indices":[8,8,0,0,8,0,0],"split_type":[0,0,0,0,0,0,0],"sum_hessian":[5.6549946E3,5.2884688E3,3.6652597E2,3.2995993E2,4.958509E3,2.27009E3,2.6884187E3],"tree_param":{"num_deleted":"0","num_feature":"30","num_nodes":"7","size_leaf_vector":"1"}},{"base_weights":[3.7592843E-3,7.111692E-2,-1.0507299E-1,1.0125116E0,6.8075154E-3,1.02229774E-1,-1.1052861E-2,-2.177864E-2,1.4282902E-2],"categories":[],"categories_nodes":[],"categories_segments":[],"categories_sizes":[],"default_left":[0,0,0,0,0,0,0,0,0],"id":30,"left_children":[1,3,-1,5,7,-1,-1,-1,-1],"loss_changes":[3.9304987E2,3.147E2,0E0,4.7917786E0,1.4921463E2,0E0,0E0,0E0,0E0],"parents":[2147483647,0,0,1,1,3,3,4,4],"right_children":[2,4,-1,6,8,-1,-1,-1,-1],"split_conditions":[1.6501797E0,-4.2799634E-1,-1.0507299E-1,-9.3727365E-2,-2.0379178E-1,1.02229774E-1,-1.1052861E-2,-2.177864E-2,1.4282902E-2],"split_indices":[9,9,0,11,0,0,0,0,0],"split_type":[0,0,0,0,0,0,0,0,0],"sum_hessian":[5.5434277E3,5.2132354E3,3.301925E2,3.3047852E2,4.882757E3,3.2868423E2,1.7942839E0,1.8385137E3,3.044243E3],"tree_param":{"num_deleted":"0","num_feature":"30","num_nodes":"9","size_leaf_vector":"1"}},{"base_weights":[6.2053227E-3,2.5122973E-1,-2.6185617E-1,1.0108217E0,1.610116E-1,-1.5901335E-1,-1.0438503E-1,1.02257945E-1,-0E0,-7.668908E-2,1.8934997E-2,-8.065312E-2,-1.1761124E-2],"categories":[],"categories_nodes":[],"categories_segments":[],"categories_sizes":[],"default_left":[0,0,0,0,0,0,0,0,0,0,0,0,0],"id":31,"left_children":[1,3,5,7,9,11,-1,-1,-1,-1,-1,-1,-1],"loss_changes":[3.601222E2,1.9494221E2,2.0888959E2,4.230011E0,6.7180046E1,6.0971302E1,0E0,0E0,0E0,0E0,0E0,0E0,0E0],"parents":[2147483647,0,0,1,1,2,2,3,3,4,4,5,5],"right_children":[2,4,6,8,10,12,-1,-1,-1,-1,-1,-1,-1],"split_conditions":[6.110917E-1,-4.2799634E-1,1.6501797E0,-9.372765E-2,-1.0777007E-1,-1.0776995E-1,-1.0438503E-1,1.02257945E-1,-0E0,-7.668908E-2,1.8934997E-2,-8.065312E-2,-1.1761124E-2],"split_indices":[9,9,9,11,10,10,0,0,0,0,0,0,0],"split_type":[0,0,0,0,0,0,0,0,0,0,0,0,0],"sum_hessian":[5.479006E3,2.8645188E3,2.6144873E3,3.0076166E2,2.563757E3,2.3138677E3,3.0061948E2,2.978846E2,2.877055E0,7.3386925E1,2.49037E3,1.3538397E2,2.1784836E3],"tree_param":{"num_deleted":"0","num_feature":"30","num_nodes":"13","size_leaf_vector":"1"}},{"base_weights":[2.436681E-3,5.8762435E-2,-1.03773646E-1,1.0076209E0,4.5507154E-3,1.0142418E-1,-0E0,-8.521573E-2,3.501077E-3],"categories":[],"categories_nodes":[],"categories_segments":[],"categories_sizes":[],"default_left":[0,0,0,0,0,0,0,0,0],"id":32,"left_children":[1,3,-1,5,7,-1,-1,-1,-1],"loss_changes":[3.153841E2,2.62512E2,0E0,1.0655518E0,1.25787186E2,0E0,0E0,0E0,0E0],"parents":[2147483647,0,0,1,1,3,3,4,4],"right_children":[2,4,-1,6,8,-1,-1,-1,-1],"split_conditions":[1.6501797E0,-4.2799634E-1,-1.03773646E-1,-9.372765E-2,-1.0777007E-1,1.0142418E-1,-0E0,-8.521573E-2,3.501077E-3],"split_indices":[9,9,0,11,10,0,0,0,0],"split_type":[0,0,0,0,0,0,0,0,0],"sum_hessian":[5.3956616E3,5.1211953E3,2.744662E2,2.738811E2,4.847314E3,2.7132687E2,2.5542297E0,1.6344823E2,4.6838657E3],"tree_param":{"num_deleted":"0","num_feature":"30","num_nodes":"9","size_leaf_vector":"1"}},{"base_weights":[1.0977357E-2,-5.126404E-2,1.03602104E-1,-1.0410025E-1,3.3078615E-3,5.134402E-3,-1.0345496E-1],"categories":[],"categories_nodes":[],"categories_segments":[],"categories_sizes":[],"default_left":[0,0,0,0,0,0,0],"id":33,"left_children":[1,3,-1,-1,5,-1,-1],"loss_changes":[3.4343417E2,2.7432788E2,0E0,0E0,2.3824214E2,0E0,0E0],"parents":[2147483647,0,0,1,1,4,4],"right_children":[2,4,-1,-1,6,-1,-1],"split_conditions":[1.4461659E0,-6.3154113E-1,1.03602104E-1,-1.0410025E-1,1.6501797E0,5.134402E-3,-1.0345496E-1],"split_indices":[8,8,0,0,9,0,0],"split_type":[0,0,0,0,0,0,0],"sum_hessian":[5.3638687E3,5.0576865E3,3.06182E2,2.6336493E2,4.7943213E3,4.584975E3,2.0934624E2],"tree_param":{"num_deleted":"0","num_feature":"30","num_nodes":"7","size_leaf_vector":"1"}},{"base_weights":[3.9967694E-3,-5.3272422E-2,1.0304373E-1,-1.03469275E-1,-3.4434411E-3,3.9768135E-3,-1.0283595E-1],"categories":[],"categories_nodes":[],"categories_segments":[],"categories_sizes":[],"default_left":[0,0,0,0,0,0,0],"id":34,"left_children":[1,3,-1,-1,5,-1,-1],"loss_changes":[3.1059567E2,2.4288249E2,0E0,0E0,2.1143668E2,0E0,0E0],"parents":[2147483647,0,0,1,1,4,4],"right_children":[2,4,-1,-1,6,-1,-1],"split_conditions":[1.4461659E0,-6.3154113E-1,1.0304373E-1,-1.03469275E-1,1.6501797E0,3.9768135E-3,-1.0283595E-1],"split_indices":[8,8,0,0,9,0,0],"split_type":[0,0,0,0,0,0,0],"sum_hessian":[5.2632393E3,4.985974E3,2.7726535E2,2.3803777E2,4.747936E3,4.5567646E3,1.9117145E2],"tree_param":{"num_deleted":"0","num_feature":"30","num_nodes":"7","size_leaf_vector":"1"}},{"base_weights":[-6.443699E-3,-5.9462626E-2,1.0253648E-1,-1.0297858E-1,-1.39737995E-2,9.958633E-2,-5.6881704E-3],"categories":[],"categories_nodes":[],"categories_segments":[],"categories_sizes":[],"default_left":[0,0,0,0,0,0,0],"id":35,"left_children":[1,3,-1,-1,5,-1,-1],"loss_changes":[2.8461417E2,2.1811606E2,0E0,0E0,2.0484111E2,0E0,0E0],"parents":[2147483647,0,0,1,1,4,4],"right_children":[2,4,-1,-1,6,-1,-1],"split_conditions":[1.4461659E0,-6.3154113E-1,1.0253648E-1,-1.0297858E-1,-4.2799634E-1,9.958633E-2,-5.6881704E-3],"split_indices":[8,8,0,0,9,0,0],"split_type":[0,0,0,0,0,0,0],"sum_hessian":[5.2160996E3,4.9638867E3,2.5221277E2,2.1936421E2,4.744523E3,1.9061751E2,4.5539053E3],"tree_param":{"num_deleted":"0","num_feature":"30","num_nodes":"7","size_leaf_vector":"1"}},{"base_weights":[5.2033924E-3,-4.2314008E-2,1.02063015E-1,-1.8822386E-4,-1.0207271E-1,-1.0253345E-1,3.7856034E-3],"categories":[],"categories_nodes":[],"categories_segments":[],"categories_sizes":[],"default_left":[0,0,0,0,0,0,0],"id":36,"left_children":[1,3,-1,5,-1,-1,-1],"loss_changes":[2.5093356E2,2.0292006E2,0E0,1.8619455E2,0E0,0E0,0E0],"parents":[2147483647,0,0,1,1,3,3],"right_children":[2,4,-1,6,-1,-1,-1],"split_conditions":[1.4461659E0,1.6501797E0,1.02063015E-1,-6.3154113E-1,-1.0207271E-1,-1.0253345E-1,3.7856034E-3],"split_indices":[8,9,0,8,0,0,0],"split_type":[0,0,0,0,0,0,0],"sum_hessian":[5.176583E3,4.9460615E3,2.3052155E2,4.7447954E3,2.0126573E2,1.6886687E2,4.5759287E3],"tree_param":{"num_deleted":"0","num_feature":"30","num_nodes":"7","size_leaf_vector":"1"}},{"base_weights":[-0E0,-4.3136366E-2,1.0158993E-1,9.875972E-1,-8.189024E-2,1.0064913E-1,-8.381764E-3,-4.361593E-3,-1.0158916E-1],"categories":[],"categories_nodes":[],"categories_segments":[],"categories_sizes":[],"default_left":[0,0,0,0,0,0,0,0,0],"id":37,"left_children":[1,3,-1,5,7,-1,-1,-1,-1],"loss_changes":[2.2539899E2,1.9561981E2,0E0,4.681534E0,1.6831697E2,0E0,0E0,0E0,0E0],"parents":[2147483647,0,0,1,1,3,3,4,4],"right_children":[2,4,-1,6,8,-1,-1,-1,-1],"split_conditions":[1.4461659E0,-4.2799634E-1,1.0158993E-1,-9.372765E-2,1.6501797E0,1.0064913E-1,-8.381764E-3,-4.361593E-3,-1.0158916E-1],"split_indices":[8,9,0,11,9,0,0,0,0],"split_type":[0,0,0,0,0,0,0,0,0],"sum_hessian":[5.121399E3,4.9138633E3,2.0753587E2,1.7534898E2,4.738514E3,1.7334662E2,2.0023658E0,4.555019E3,1.834954E2],"tree_param":{"num_deleted":"0","num_feature":"30","num_nodes":"9","size_leaf_vector":"1"}},{"base_weights":[-5.4102675E-3,-4.581607E-2,1.0117432E-1,9.791647E-1,-8.184393E-2,9.969594E-2,-1.28545705E-2,-1.01664305E-1,-4.5106425E-3],"categories":[],"categories_nodes":[],"categories_segments":[],"categories_sizes":[],"default_left":[0,0,0,0,0,0,0,0,0],"id":38,"left_children":[1,3,-1,5,7,-1,-1,-1,-1],"loss_changes":[2.0674E2,1.787843E2,0E0,4.3630676E0,1.6022458E2,0E0,0E0,0E0,0E0],"parents":[2147483647,0,0,1,1,3,3,4,4],"right_children":[2,4,-1,6,8,-1,-1,-1,-1],"split_conditions":[1.4461659E0,-4.2799634E-1,1.0117432E-1,-9.372743E-2,-6.3154113E-1,9.969594E-2,-1.28545705E-2,-1.01664305E-1,-4.5106425E-3],"split_indices":[8,9,0,11,8,0,0,0,0],"split_type":[0,0,0,0,0,0,0,0,0],"sum_hessian":[5.049551E3,4.859407E3,1.9014394E2,1.6228685E2,4.69712E3,1.608063E2,1.4805417E0,1.7456947E2,4.522551E3],"tree_param":{"num_deleted":"0","num_feature":"30","num_nodes":"9","size_leaf_vector":"1"}},{"base_weights":[9.480497E-3,-2.050716E-1,1.9098784E-1,-1.0138126E-1,-1.4310181E-1,1.3347954E-1,1.0077714E-1,4.201682E-3,-3.233153E-2,9.9311054E-2,9.715152E-3],"categories":[],"categories_nodes":[],"categories_segments":[],"categories_sizes":[],"default_left":[0,0,0,0,0,0,0,0,0,0,0],"id":39,"left_children":[1,3,5,-1,7,9,-1,-1,-1,-1,-1],"loss_changes":[1.9466171E2,1.1324607E2,1.2590809E2,0E0,7.133667E1,7.790286E1,0E0,0E0,0E0,0E0,0E0],"parents":[2147483647,0,0,1,1,2,2,4,4,5,5],"right_children":[2,4,6,-1,8,10,-1,-1,-1,-1,-1],"split_conditions":[4.0731242E-1,-6.3154113E-1,1.4461659E0,-1.0138126E-1,6.110917E-1,-4.2799634E-1,1.0077714E-1,4.201682E-3,-3.233153E-2,9.9311054E-2,9.715152E-3],"split_indices":[8,8,8,0,9,9,0,0,0,0,0],"split_type":[0,0,0,0,0,0,0,0,0,0,0],"sum_hessian":[4.9950103E3,2.2864849E3,2.7085251E3,1.5939769E2,2.1270872E3,2.533684E3,1.7484114E2,1.0472832E3,1.079804E3,9.948017E1,2.4342039E3],"tree_param":{"num_deleted":"0","num_feature":"30","num_nodes":"11","size_leaf_vector":"1"}},{"base_weights":[-1.3074408E-3,-3.4897752E-2,1.0034507E-1,-1.009263E-1,-3.3884328E-3,-1.4056324E-2,1.1089269E-2],"categories":[],"categories_nodes":[],"categories_segments":[],"categories_sizes":[],"default_left":[0,0,0,0,0,0,0],"id":40,"left_children":[1,3,-1,-1,5,-1,-1],"loss_changes":[1.6576988E2,1.4577847E2,0E0,0E0,7.271615E1,0E0,0E0],"parents":[2147483647,0,0,1,1,4,4],"right_children":[2,4,-1,-1,6,-1,-1],"split_conditions":[1.4461659E0,-6.3154113E-1,1.0034507E-1,-1.009263E-1,4.0731242E-1,-1.4056324E-2,1.1089269E-2],"split_indices":[8,8,0,0,8,0,0],"split_type":[0,0,0,0,0,0,0],"sum_hessian":[4.9363022E3,4.7794453E3,1.5685701E2,1.467793E2,4.632666E3,2.1092114E3,2.5234546E3],"tree_param":{"num_deleted":"0","num_feature":"30","num_nodes":"7","size_leaf_vector":"1"}},{"base_weights":[2.790598E-3,3.7250742E-2,-1.0100327E-1,9.571194E-2,4.393766E-3,1.2254379E-2,-1.2535772E-2],"categories":[],"categories_nodes":[],"categories_segments":[],"categories_sizes":[],"default_left":[0,0,0,0,0,0,0],"id":41,"left_children":[1,3,-1,-1,5,-1,-1],"loss_changes":[1.70726E2,1.4284772E2,0E0,0E0,7.050565E1,0E0,0E0],"parents":[2147483647,0,0,1,1,4,4],"right_children":[2,4,-1,-1,6,-1,-1],"split_conditions":[1.6501797E0,-4.2799634E-1,-1.0100327E-1,9.571194E-2,6.110917E-1,1.2254379E-2,-1.2535772E-2],"split_indices":[9,9,0,0,9,0,0],"split_type":[0,0,0,0,0,0,0],"sum_hessian":[4.915293E3,4.7563765E3,1.5891646E2,1.6104494E2,4.5953315E3,2.4092854E3,2.1860461E3],"tree_param":{"num_deleted":"0","num_feature":"30","num_nodes":"7","size_leaf_vector":"1"}},{"base_weights":[1.273471E-4,-2.9779427E-2,9.989759E-2,-1.0056458E-1,-8.287671E-4,-1.3757998E-2,1.055045E-2],"categories":[],"categories_nodes":[],"categories_segments":[],"categories_sizes":[],"default_left":[0,0,0,0,0,0,0],"id":42,"left_children":[1,3,-1,-1,5,-1,-1],"loss_changes":[1.4557433E2,1.317502E2,0E0,0E0,6.646626E1,0E0,0E0],"parents":[2147483647,0,0,1,1,4,4],"right_children":[2,4,-1,-1,6,-1,-1],"split_conditions":[1.4461659E0,-6.3154113E-1,9.989759E-2,-1.0056458E-1,-1.12114355E-1,-1.3757998E-2,1.055045E-2],"split_indices":[8,8,0,0,8,0,0],"split_type":[0,0,0,0,0,0,0],"sum_hessian":[4.836779E3,4.6970815E3,1.3969727E2,1.3239249E2,4.564689E3,2.000604E3,2.564085E3],"tree_param":{"num_deleted":"0","num_feature":"30","num_nodes":"7","size_leaf_vector":"1"}},{"base_weights":[-4.2775874E-3,1.65926E-1,-1.9308123E-1,9.452913E-1,1.1736824E-1,-1.3791549E-1,-1.00512624E-1,9.620033E-2,-1.1463619E-2,-7.253147E-3,2.168576E-2,-3.4795534E-2,-7.104116E-3],"categories":[],"categories_nodes":[],"categories_segments":[],"categories_sizes":[],"default_left":[0,0,0,0,0,0,0,0,0,0,0,0,0],"id":43,"left_children":[1,3,5,7,9,11,-1,-1,-1,-1,-1,-1,-1],"loss_changes":[1.5479546E2,9.446494E1,1.0098997E2,3.6700287E0,4.5239296E1,2.9648735E1,0E0,0E0,0E0,0E0,0E0,0E0,0E0],"parents":[2147483647,0,0,1,1,2,2,3,3,4,4,5,5],"right_children":[2,4,6,8,10,12,-1,-1,-1,-1,-1,-1,-1],"split_conditions":[6.110917E-1,-4.2799634E-1,1.6501797E0,-9.3727365E-2,-9.372819E-2,-5.429319E-1,-1.00512624E-1,9.620033E-2,-1.1463619E-2,-7.253147E-3,2.168576E-2,-3.4795534E-2,-7.104116E-3],"split_indices":[9,9,9,11,11,0,0,0,0,0,0,0,0],"split_type":[0,0,0,0,0,0,0,0,0,0,0,0,0],"sum_hessian":[4.812189E3,2.5280955E3,2.2840935E3,1.4489891E2,2.3831965E3,2.1421396E3,1.4195367E2,1.4376047E2,1.1384506E0,8.1605225E2,1.5671444E3,5.1168213E2,1.6304576E3],"tree_param":{"num_deleted":"0","num_feature":"30","num_nodes":"13","size_leaf_vector":"1"}},{"base_weights":[-2.4386146E-3,2.5343265E-2,-1.0003301E-1,-1.550705E-3,9.944063E-2,-9.9911444E-2,2.2282517E-3],"categories":[],"categories_nodes":[],"categories_segments":[],"categories_sizes":[],"default_left":[0,0,0,0,0,0,0],"id":44,"left_children":[1,3,-1,5,-1,-1,-1],"loss_changes":[1.3286523E2,1.21603226E2,0E0,1.08098595E2,0E0,0E0,0E0],"parents":[2147483647,0,0,1,1,3,3],"right_children":[2,4,-1,6,-1,-1,-1],"split_conditions":[1.6501797E0,1.4461659E0,-1.0003301E-1,-6.3154113E-1,9.944063E-2,-9.9911444E-2,2.2282517E-3],"split_indices":[9,8,0,8,0,0,0],"split_type":[0,0,0,0,0,0,0],"sum_hessian":[4.7535503E3,4.625715E3,1.27835495E2,4.5017446E3,1.2397002E2,1.0411282E2,4.397632E3],"tree_param":{"num_deleted":"0","num_feature":"30","num_nodes":"7","size_leaf_vector":"1"}},{"base_weights":[-8.211078E-3,9.4292045E-1,-3.6072586E-2,9.642531E-2,-1.2654634E-2,-1.05364965E-2,-9.957533E-2,-3.3210411E-3,9.879628E-2],"categories":[],"categories_nodes":[],"categories_segments":[],"categories_sizes":[],"default_left":[0,0,0,0,0,0,0,0,0],"id":45,"left_children":[1,3,5,-1,-1,7,-1,-1,-1],"loss_changes":[1.2435311E2,4.12751E0,1.11524445E2,0E0,0E0,1.0046348E2,0E0,0E0,0E0],"parents":[2147483647,0,0,1,1,2,2,5,5],"right_children":[2,4,6,-1,-1,8,-1,-1,-1],"split_conditions":[-4.2799634E-1,-9.372743E-2,1.6501797E0,9.642531E-2,-1.2654634E-2,1.4461659E0,-9.957533E-2,-3.3210411E-3,9.879628E-2],"split_indices":[9,11,9,0,0,8,0,0,0],"split_type":[0,0,0,0,0,0,0,0,0],"sum_hessian":[4.722231E3,1.315008E2,4.5907305E3,1.3003873E2,1.4620774E0,4.4747266E3,1.1600378E2,4.3782407E3,9.6486084E1],"tree_param":{"num_deleted":"0","num_feature":"30","num_nodes":"9","size_leaf_vector":"1"}},{"base_weights":[1.8604179E-3,-9.9603236E-2,2.5384473E-2,2.9741025E-3,9.860835E-2,5.549661E-3,-2.1142757E-2],"categories":[],"categories_nodes":[],"categories_segments":[],"categories_sizes":[],"default_left":[0,0,0,0,0,0,0],"id":46,"left_children":[1,-1,3,5,-1,-1,-1],"loss_changes":[1.09824295E2,0E0,9.829812E1,5.065222E1,0E0,0E0,0E0],"parents":[2147483647,0,0,2,2,3,3],"right_children":[2,-1,4,6,-1,-1,-1],"split_conditions":[-6.3154113E-1,-9.9603236E-2,1.4461659E0,7.9506564E-1,9.860835E-2,5.549661E-3,-2.1142757E-2],"split_indices":[8,0,8,1,0,0,0],"split_type":[0,0,0,0,0,0,0],"sum_hessian":[4.715649E3,1.0572193E2,4.609927E3,4.5078193E3,1.02107475E2,3.6257556E3,8.820638E2],"tree_param":{"num_deleted":"0","num_feature":"30","num_nodes":"7","size_leaf_vector":"1"}},{"base_weights":[3.205368E-3,2.6358139E-2,-9.908687E-2,9.1981995E-1,2.2915863E-3,-2.0235581E-2,9.440871E-2,-9.854569E-2,2.204326E-3],"categories":[],"categories_nodes":[],"categories_segments":[],"categories_sizes":[],"default_left":[0,0,0,0,0,0,0,0,0],"id":47,"left_children":[1,3,-1,5,7,-1,-1,-1,-1],"loss_changes":[1.0745619E2,9.807674E1,0E0,4.3827744E0,8.661171E1,0E0,0E0,0E0,0E0],"parents":[2147483647,0,0,1,1,3,3,4,4],"right_children":[2,4,-1,6,8,-1,-1,-1,-1],"split_conditions":[1.6501797E0,-4.2799634E-1,-9.908687E-2,-6.3154113E-1,-6.3154113E-1,-2.0235581E-2,9.440871E-2,-9.854569E-2,2.204326E-3],"split_indices":[9,9,0,8,8,0,0,0,0],"split_type":[0,0,0,0,0,0,0,0,0],"sum_hessian":[4.706486E3,4.6022485E3,1.04237076E2,1.1767348E2,4.484575E3,1.3079017E0,1.1636558E2,8.500887E1,4.3995664E3],"tree_param":{"num_deleted":"0","num_feature":"30","num_nodes":"9","size_leaf_vector":"1"}},{"base_weights":[-4.386667E-3,-2.49827E-2,9.816232E-2,-9.860833E-2,-5.768567E-3,-1.0468057E-2,7.6712347E-3],"categories":[],"categories_nodes":[],"categories_segments":[],"categories_sizes":[],"default_left":[0,0,0,0,0,0,0],"id":48,"left_children":[1,3,-1,-1,5,-1,-1],"loss_changes":[9.332259E1,8.2984886E1,0E0,0E0,3.644636E1,0E0,0E0],"parents":[2147483647,0,0,1,1,4,4],"right_children":[2,4,-1,-1,6,-1,-1],"split_conditions":[1.4461659E0,-6.3154113E-1,9.816232E-2,-9.860833E-2,4.0731242E-1,-1.0468057E-2,7.6712347E-3],"split_indices":[8,8,0,0,8,0,0],"split_type":[0,0,0,0,0,0,0],"sum_hessian":[4.638077E3,4.546081E3,9.199622E1,8.611038E1,4.4599707E3,2.0332551E3,2.4267156E3],"tree_param":{"num_deleted":"0","num_feature":"30","num_nodes":"7","size_leaf_vector":"1"}},{"base_weights":[-2.6420343E-3,9.235064E-1,-2.5091344E-2,9.4826716E-1,-8.3090585E-5,-4.4396184E-3,-9.854748E-2,9.567679E-2,-0E0,-2.1368712E-3,9.733399E-2],"categories":[],"categories_nodes":[],"categories_segments":[],"categories_sizes":[],"default_left":[0,0,0,0,0,0,0,0,0,0,0],"id":49,"left_children":[1,3,5,7,-1,9,-1,-1,-1,-1,-1],"loss_changes":[9.551891E1,3.4367065E0,8.881662E1,3.4210205E-1,0E0,7.252079E1,0E0,0E0,0E0,0E0,0E0],"parents":[2147483647,0,0,1,1,2,2,3,3,5,5],"right_children":[2,4,6,8,-1,10,-1,-1,-1,-1,-1],"split_conditions":[-4.2799634E-1,-9.372765E-2,1.6501797E0,3.5681229E0,-8.3090585E-5,1.4461659E0,-9.854748E-2,9.567679E-2,-0E0,-2.1368712E-3,9.733399E-2],"split_indices":[9,11,9,2,0,8,0,0,0,0,0],"split_type":[0,0,0,0,0,0,0,0,0,0,0],"sum_hessian":[4.6331387E3,1.0669292E2,4.526446E3,1.0491263E2,1.7802844E0,4.434146E3,9.229972E1,1.03395E2,1.5176326E0,4.361609E3,7.253707E1],"tree_param":{"num_deleted":"0","num_feature":"30","num_nodes":"11","size_leaf_vector":"1"}},{"base_weights":[6.113334E-3,2.545085E-2,-9.8130345E-2,9.1942555E-1,5.3787767E-3,-1.3374704E-2,9.443864E-2,-9.741724E-2,2.1685038E-3],"categories":[],"categories_nodes":[],"categories_segments":[],"categories_sizes":[],"default_left":[0,0,0,0,0,0,0,0,0],"id":50,"left_children":[1,3,-1,5,7,-1,-1,-1,-1],"loss_changes":[8.6903824E1,8.005302E1,0E0,3.6396408E0,6.964762E1,0E0,0E0,0E0,0E0],"parents":[2147483647,0,0,1,1,3,3,4,4],"right_children":[2,4,-1,6,8,-1,-1,-1,-1],"split_conditions":[1.6501797E0,-4.2799634E-1,-9.8130345E-2,-6.3154113E-1,-6.3154113E-1,-1.3374704E-2,9.443864E-2,-9.741724E-2,2.1685038E-3],"split_indices":[9,9,0,8,8,0,0,0,0],"split_type":[0,0,0,0,0,0,0,0,0],"sum_hessian":[4.596767E3,4.5113774E3,8.5389366E1,9.600601E1,4.4153716E3,1.0933907E0,9.491262E1,6.9369835E1,4.3460015E3],"tree_param":{"num_deleted":"0","num_feature":"30","num_nodes":"9","size_leaf_vector":"1"}},{"base_weights":[1.618202E-2,-9.753267E-2,3.2395635E-2,1.5947916E-2,9.7185224E-2,1.3172013E-2,-5.0081387E-3],"categories":[],"categories_nodes":[],"categories_segments":[],"categories_sizes":[],"default_left":[0,0,0,0,0,0,0],"id":51,"left_children":[1,-1,3,5,-1,-1,-1],"loss_changes":[7.266455E1,0E0,6.857861E1,3.39571E1,0E0,0E0,0E0],"parents":[2147483647,0,0,2,2,3,3],"right_children":[2,-1,4,6,-1,-1,-1],"split_conditions":[-6.3154113E-1,-9.753267E-2,1.4461659E0,-1.4826083E-1,9.7185224E-2,1.3172013E-2,-5.0081387E-3],"split_indices":[8,0,8,1,0,0,0],"split_type":[0,0,0,0,0,0,0],"sum_hessian":[4.5728057E3,7.067768E1,4.502128E3,4.4277075E3,7.442055E1,1.6128967E3,2.8148108E3],"tree_param":{"num_deleted":"0","num_feature":"30","num_nodes":"7","size_leaf_vector":"1"}},{"base_weights":[-6.1355685E-3,-2.1550795E-2,9.675897E-2,-9.703518E-2,-7.0773703E-3,-1.03309145E-2,6.7734467E-3],"categories":[],"categories_nodes":[],"categories_segments":[],"categories_sizes":[],"default_left":[0,0,0,0,0,0,0],"id":52,"left_children":[1,3,-1,-1,5,-1,-1],"loss_changes":[6.8067055E1,6.116616E1,0E0,0E0,3.2168205E1,0E0,0E0],"parents":[2147483647,0,0,1,1,4,4],"right_children":[2,4,-1,-1,6,-1,-1],"split_conditions":[1.4461659E0,-6.3154113E-1,9.675897E-2,-9.703518E-2,-1.12114355E-1,-1.03309145E-2,6.7734467E-3],"split_indices":[8,8,0,0,8,0,0],"split_type":[0,0,0,0,0,0,0],"sum_hessian":[4.5929697E3,4.5243267E3,6.864275E1,6.4956314E1,4.4593706E3,1.9559731E3,2.5033975E3],"tree_param":{"num_deleted":"0","num_feature":"30","num_nodes":"7","size_leaf_vector":"1"}},{"base_weights":[-6.7293914E-3,9.1535455E-1,-2.489079E-2,9.3464994E-1,-0E0,-7.965498E-3,-9.7561784E-2,9.451419E-2,-0E0,-2.0426295E-3,9.560375E-2],"categories":[],"categories_nodes":[],"categories_segments":[],"categories_sizes":[],"default_left":[0,0,0,0,0,0,0,0,0,0,0],"id":53,"left_children":[1,3,5,7,-1,9,-1,-1,-1,-1,-1],"loss_changes":[7.604659E1,1.7381668E0,7.1506226E1,4.739685E-1,0E0,5.2318897E1,0E0,0E0,0E0,0E0,0E0],"parents":[2147483647,0,0,1,1,2,2,3,3,5,5],"right_children":[2,4,6,8,-1,10,-1,-1,-1,-1,-1],"split_conditions":[-4.2799634E-1,-9.372765E-2,1.6501797E0,3.5681229E0,-0E0,1.4461659E0,-9.7561784E-2,9.451419E-2,-0E0,-2.0426295E-3,9.560375E-2],"split_indices":[9,11,9,2,0,8,0,0,0,0,0],"split_type":[0,0,0,0,0,0,0,0,0,0,0],"sum_hessian":[4.5895415E3,8.567776E1,4.503864E3,8.408472E1,1.5930359E0,4.4281016E3,7.576257E1,8.271467E1,1.3700507E0,4.3745503E3,5.35509E1],"tree_param":{"num_deleted":"0","num_feature":"30","num_nodes":"11","size_leaf_vector":"1"}},{"base_weights":[-0E0,1.1981437E-1,-1.3300014E-1,8.896357E-1,9.230074E-2,-1.03856444E-1,-9.7049884E-2,9.255993E-2,-7.484004E-3,-2.396546E-2,1.4482826E-2,-9.184652E-2,-9.035605E-3],"categories":[],"categories_nodes":[],"categories_segments":[],"categories_sizes":[],"default_left":[0,0,0,0,0,0,0,0,0,0,0,0,0],"id":54,"left_children":[1,3,5,7,9,11,-1,-1,-1,-1,-1,-1,-1],"loss_changes":[7.220792E1,4.9355717E1,5.112909E1,3.791626E0,4.017611E1,2.168086E1,0E0,0E0,0E0,0E0,0E0,0E0,0E0],"parents":[2147483647,0,0,1,1,2,2,3,3,4,4,5,5],"right_children":[2,4,6,8,10,12,-1,-1,-1,-1,-1,-1,-1],"split_conditions":[6.110917E-1,-4.2799634E-1,1.6501797E0,-9.372765E-2,-9.37286E-2,-6.3154113E-1,-9.7049884E-2,9.255993E-2,-7.484004E-3,-2.396546E-2,1.4482826E-2,-9.184652E-2,-9.035605E-3],"split_indices":[9,9,9,11,11,8,0,0,0,0,0,0,0],"split_type":[0,0,0,0,0,0,0,0,0,0,0,0,0],"sum_hessian":[4.5274097E3,2.3823484E3,2.145061E3,7.879099E1,2.3035574E3,2.0762527E3,6.88084E1,7.7035904E1,1.755088E0,3.1113455E2,1.9924229E3,3.0455278E1,2.0457974E3],"tree_param":{"num_deleted":"0","num_feature":"30","num_nodes":"13","size_leaf_vector":"1"}},{"base_weights":[-7.367924E-4,1.29422685E-2,-9.648209E-2,8.708196E-1,-1.2996483E-3,-1.2204662E-2,9.027231E-2,-1.2861233E-3,9.507583E-2],"categories":[],"categories_nodes":[],"categories_segments":[],"categories_sizes":[],"default_left":[0,0,0,0,0,0,0,0,0],"id":55,"left_children":[1,3,-1,5,7,-1,-1,-1,-1],"loss_changes":[6.039666E1,5.5162785E1,0E0,3.3359947E0,4.7209118E1,0E0,0E0,0E0,0E0],"parents":[2147483647,0,0,1,1,3,3,4,4],"right_children":[2,4,-1,6,8,-1,-1,-1,-1],"split_conditions":[1.6501797E0,-4.2799634E-1,-9.648209E-2,-6.3154113E-1,1.4461659E0,-1.2204662E-2,9.027231E-2,-1.2861233E-3,9.507583E-2],"split_indices":[9,9,0,8,8,0,0,0,0],"split_type":[0,0,0,0,0,0,0,0,0],"sum_hessian":[4.503677E3,4.4415923E3,6.2084347E1,7.171454E1,4.3698774E3,1.0808821E0,7.063366E1,4.3204346E3,4.9443077E1],"tree_param":{"num_deleted":"0","num_feature":"30","num_nodes":"9","size_leaf_vector":"1"}},{"base_weights":[-8.377445E-3,1.07410006E-1,-1.2975997E-1,8.653294E-1,8.3636835E-2,-1.0623133E-1,-9.5964424E-2,8.776205E-2,-0E0,7.112132E-3,9.130756E-2,-9.1463275E-2,-9.358353E-3],"categories":[],"categories_nodes":[],"categories_segments":[],"categories_sizes":[],"default_left":[0,0,0,0,0,0,0,0,0,0,0,0,0],"id":56,"left_children":[1,3,5,7,9,11,-1,-1,-1,-1,-1,-1,-1],"loss_changes":[6.2935047E1,4.0110558E1,4.148272E1,5.2817917E-1,2.1939373E1,2.0625021E1,0E0,0E0,0E0,0E0,0E0,0E0,0E0],"parents":[2147483647,0,0,1,1,2,2,3,3,4,4,5,5],"right_children":[2,4,6,8,10,12,-1,-1,-1,-1,-1,-1,-1],"split_conditions":[9.154767E-2,-4.2799634E-1,1.6501797E0,3.5681229E0,1.4461659E0,-6.3154113E-1,-9.5964424E-2,8.776205E-2,-0E0,7.112132E-3,9.130756E-2,-9.1463275E-2,-9.358353E-3],"split_indices":[9,9,9,2,8,8,0,0,0,0,0,0,0],"split_type":[0,0,0,0,0,0,0,0,0,0,0,0,0],"sum_hessian":[4.472332E3,2.2848208E3,2.1875112E3,6.605452E1,2.218766E3,2.1305671E3,5.6944187E1,6.48474E1,1.2071218E0,2.1891116E3,2.9654678E1,2.9405073E1,2.101162E3],"tree_param":{"num_deleted":"0","num_feature":"30","num_nodes":"13","size_leaf_vector":"1"}},{"base_weights":[-1.5419726E-3,-9.5670104E-2,9.884045E-3,8.8149714E-1,-2.2978655E-3,9.113614E-2,-0E0,8.460803E-4,-9.4997555E-2],"categories":[],"categories_nodes":[],"categories_segments":[],"categories_sizes":[],"default_left":[0,0,0,0,0,0,0,0,0],"id":57,"left_children":[1,-1,3,5,7,-1,-1,-1,-1],"loss_changes":[4.9627907E1,0E0,4.7677105E1,2.473793E0,4.5280407E1,0E0,0E0,0E0,0E0],"parents":[2147483647,0,0,2,2,3,3,4,4],"right_children":[2,-1,4,6,8,-1,-1,-1,-1],"split_conditions":[-6.3154113E-1,-9.5670104E-2,-4.2799634E-1,-9.372765E-2,1.6501797E0,9.113614E-2,-0E0,8.460803E-4,-9.4997555E-2],"split_indices":[8,0,9,11,9,0,0,0,0],"split_type":[0,0,0,0,0,0,0,0,0],"sum_hessian":[4.45683E3,5.1762924E1,4.4050674E3,5.9882103E1,4.345185E3,5.887134E1,1.0107634E0,4.297326E3,4.7859173E1],"tree_param":{"num_deleted":"0","num_feature":"30","num_nodes":"9","size_leaf_vector":"1"}},{"base_weights":[3.93156E-3,-9.548121E-2,1.5053439E-2,4.177269E-3,9.467333E-2,1.4575874E-3,-9.441502E-2],"categories":[],"categories_nodes":[],"categories_segments":[],"categories_sizes":[],"default_left":[0,0,0,0,0,0,0],"id":58,"left_children":[1,-1,3,5,-1,-1,-1],"loss_changes":[4.6461903E1,0E0,4.357394E1,4.1966293E1,0E0,0E0,0E0],"parents":[2147483647,0,0,2,2,3,3],"right_children":[2,-1,4,6,-1,-1,-1],"split_conditions":[-6.3154113E-1,-9.548121E-2,1.4461659E0,1.6501797E0,9.467333E-2,1.4575874E-3,-9.441502E-2],"split_indices":[8,0,8,9,0,0,0],"split_type":[0,0,0,0,0,0,0],"sum_hessian":[4.440725E3,4.794667E1,4.3927783E3,4.3451367E3,4.7641613E1,4.300999E3,4.413759E1],"tree_param":{"num_deleted":"0","num_feature":"30","num_nodes":"7","size_leaf_vector":"1"}},{"base_weights":[-9.495229E-3,8.640941E-1,-2.121076E-2,-1.0184913E-2,9.03591E-1,-1.1271663E-2,-9.420096E-2,-0E0,9.19675E-2,-2.0464796E-3,9.33339E-2],"categories":[],"categories_nodes":[],"categories_segments":[],"categories_sizes":[],"default_left":[0,0,0,0,0,0,0,0,0,0,0],"id":59,"left_children":[1,3,5,-1,7,9,-1,-1,-1,-1,-1],"loss_changes":[4.448539E1,3.1787872E0,3.9018215E1,0E0,7.784653E-1,3.6694733E1,0E0,0E0,0E0,0E0,0E0],"parents":[2147483647,0,0,1,1,2,2,4,4,5,5],"right_children":[2,4,6,-1,8,10,-1,-1,-1,-1,-1],"split_conditions":[-4.2799634E-1,-6.3154113E-1,1.6501797E0,-1.0184913E-2,-9.372972E-2,1.4461659E0,-9.420096E-2,-0E0,9.19675E-2,-2.0464796E-3,9.33339E-2],"split_indices":[9,8,9,0,11,8,0,0,0,0,0],"split_type":[0,0,0,0,0,0,0,0,0,0,0],"sum_hessian":[4.4233594E3,5.5480602E1,4.367879E3,1.0608369E0,5.4419765E1,4.324313E3,4.3566105E1,1.0357845E0,5.338398E1,4.2856196E3,3.8693172E1],"tree_param":{"num_deleted":"0","num_feature":"30","num_nodes":"11","size_leaf_vector":"1"}},{"base_weights":[-4.783405E-4,-9.475972E-2,9.0889605E-3,8.735754E-1,-9.559611E-4,9.094351E-2,-0E0,7.098155E-4,-9.2948444E-2],"categories":[],"categories_nodes":[],"categories_segments":[],"categories_sizes":[],"default_left":[0,0,0,0,0,0,0,0,0],"id":60,"left_children":[1,-1,3,5,7,-1,-1,-1,-1],"loss_changes":[4.116261E1,0E0,3.9028164E1,2.4573784E0,3.3423E1,0E0,0E0,0E0,0E0],"parents":[2147483647,0,0,2,2,3,3,4,4],"right_children":[2,-1,4,6,8,-1,-1,-1,-1],"split_conditions":[-6.3154113E-1,-9.475972E-2,-4.2799634E-1,-9.372781E-2,1.6501797E0,9.094351E-2,-0E0,7.098155E-4,-9.2948444E-2],"split_indices":[8,0,9,11,9,0,0,0,0],"split_type":[0,0,0,0,0,0,0,0,0],"sum_hessian":[4.435174E3,4.3438053E1,4.3917354E3,4.9612377E1,4.342123E3,4.8593575E1,1.0188035E0,4.305683E3,3.6440033E1],"tree_param":{"num_deleted":"0","num_feature":"30","num_nodes":"9","size_leaf_vector":"1"}},{"base_weights":[9.097902E-3,-9.721997E-2,9.2972696E-2,-9.398409E-2,-7.846069E-2,7.85413E-2,9.321487E-2,7.547957E-3,-2.0374404E-2,1.6863998E-2,-1.7974729E-3],"categories":[],"categories_nodes":[],"categories_segments":[],"categories_sizes":[],"default_left":[0,0,0,0,0,0,0,0,0,0,0],"id":61,"left_children":[1,3,5,-1,7,9,-1,-1,-1,-1,-1],"loss_changes":[3.9572495E1,2.9690147E1,2.8950483E1,0E0,3.7051086E1,2.1439262E1,0E0,0E0,0E0,0E0,0E0],"parents":[2147483647,0,0,1,1,2,2,4,4,5,5],"right_children":[2,4,6,-1,8,10,-1,-1,-1,-1,-1],"split_conditions":[-1.12114355E-1,-6.3154113E-1,1.4461659E0,-9.398409E-2,-1.0776909E-1,9.154767E-2,9.321487E-2,7.547957E-3,-2.0374404E-2,1.6863998E-2,-1.7974729E-3],"split_indices":[8,8,8,0,10,9,0,0,0,0,0],"split_type":[0,0,0,0,0,0,0,0,0,0,0],"sum_hessian":[4.434126E3,1.9500474E3,2.4840786E3,3.91689E1,1.9108785E3,2.4454036E3,3.8675007E1,8.541572E2,1.0567213E3,1.2693341E3,1.1760695E3],"tree_param":{"num_deleted":"0","num_feature":"30","num_nodes":"11","size_leaf_vector":"1"}},{"base_weights":[-3.433588E-3,-9.316489E-2,4.3835123E-3,-3.4007323E-3,9.256301E-2,2.147273E-2,-2.6978303E-3],"categories":[],"categories_nodes":[],"categories_segments":[],"categories_sizes":[],"default_left":[0,0,0,0,0,0,0],"id":62,"left_children":[1,-1,3,5,-1,-1,-1],"loss_changes":[3.2842533E1,0E0,3.220623E1,2.2071827E1,0E0,0E0,0E0],"parents":[2147483647,0,0,2,2,3,3],"right_children":[2,-1,4,6,-1,-1,-1],"split_conditions":[-6.3154113E-1,-9.316489E-2,1.4461659E0,-1.0776953E-1,9.256301E-2,2.147273E-2,-2.6978303E-3],"split_indices":[8,0,8,10,0,0,0],"split_type":[0,0,0,0,0,0,0],"sum_hessian":[4.3953687E3,3.5801506E1,4.359567E3,4.323938E3,3.562879E1,4.160667E2,3.9078716E3],"tree_param":{"num_deleted":"0","num_feature":"30","num_nodes":"7","size_leaf_vector":"1"}},{"base_weights":[9.107042E-3,-9.241816E-2,1.6769717E-2,9.3159545E-3,9.180918E-2,-1.5832487E-2,3.8245395E-3],"categories":[],"categories_nodes":[],"categories_segments":[],"categories_sizes":[],"default_left":[0,0,0,0,0,0,0],"id":63,"left_children":[1,-1,3,5,-1,-1,-1],"loss_changes":[3.0477541E1,0E0,2.8290453E1,2.0838173E1,0E0,0E0,0E0],"parents":[2147483647,0,0,2,2,3,3],"right_children":[2,-1,4,6,-1,-1,-1],"split_conditions":[-6.3154113E-1,-9.241816E-2,1.4461659E0,-8.512411E-1,9.180918E-2,-1.5832487E-2,3.8245395E-3],"split_indices":[8,0,8,0,0,0,0],"split_type":[0,0,0,0,0,0,0],"sum_hessian":[4.382257E3,3.2676266E1,4.3495806E3,4.31701E3,3.25707E1,6.289349E2,3.6880752E3],"tree_param":{"num_deleted":"0","num_feature":"30","num_nodes":"7","size_leaf_vector":"1"}},{"base_weights":[8.765586E-4,9.153996E-2,-9.937878E-2,-2.2024833E-2,1.9264297E-1,-8.3795466E-2,-9.261818E-2,8.311614E-2,-6.0027516E-3,4.699716E-3,2.6454521E-2,-1.7374555E-2,-8.11126E-4],"categories":[],"categories_nodes":[],"categories_segments":[],"categories_sizes":[],"default_left":[0,0,0,0,0,0,0,0,0,0,0,0,0],"id":64,"left_children":[1,3,5,7,9,11,-1,-1,-1,-1,-1,-1,-1],"loss_changes":[4.0172977E1,2.6892117E1,2.581477E1,3.476378E1,1.2603912E1,1.3830287E1,0E0,0E0,0E0,0E0,0E0,0E0,0E0],"parents":[2147483647,0,0,1,1,2,2,3,3,4,4,5,5],"right_children":[2,4,6,8,10,12,-1,-1,-1,-1,-1,-1,-1],"split_conditions":[6.110917E-1,-9.372797E-2,1.6501797E0,-4.2799634E-1,-1.8868631E-1,4.0731242E-1,-9.261818E-2,8.311614E-2,-6.0027516E-3,4.699716E-3,2.6454521E-2,-1.7374555E-2,-8.11126E-4],"split_indices":[9,11,9,9,2,8,0,0,0,0,0,0,0],"split_type":[0,0,0,0,0,0,0,0,0,0,0,0,0],"sum_hessian":[4.416578E3,2.3245647E3,2.0920132E3,1.0908885E3,1.2336761E3,2.056662E3,3.535113E1,4.361631E1,1.0472722E3,4.134345E2,8.2024164E2,9.325407E2,1.1241215E3],"tree_param":{"num_deleted":"0","num_feature":"30","num_nodes":"13","size_leaf_vector":"1"}},{"base_weights":[1.7208454E-3,9.217967E-3,-9.180984E-2,7.902092E-1,1.0256545E-3,8.083917E-2,-0E0,-5.153879E-3,1.1901007E-2],"categories":[],"categories_nodes":[],"categories_segments":[],"categories_sizes":[],"default_left":[0,0,0,0,0,0,0,0,0],"id":65,"left_children":[1,3,-1,5,7,-1,-1,-1,-1],"loss_changes":[2.9155102E1,2.6879066E1,0E0,5.9259033E-1,2.6644331E1,0E0,0E0,0E0,0E0],"parents":[2147483647,0,0,1,1,3,3,4,4],"right_children":[2,4,-1,6,8,-1,-1,-1,-1],"split_conditions":[1.6501797E0,-4.2799634E-1,-9.180984E-2,3.831103E0,3.4404993E-1,8.083917E-2,-0E0,-5.153879E-3,1.1901007E-2],"split_indices":[9,9,0,12,0,0,0,0,0],"split_type":[0,0,0,0,0,0,0,0,0],"sum_hessian":[4.3551733E3,4.3230054E3,3.2168163E1,4.1627045E1,4.2813784E3,4.059338E1,1.0336639E0,2.9567412E3,1.3246372E3],"tree_param":{"num_deleted":"0","num_feature":"30","num_nodes":"9","size_leaf_vector":"1"}},{"base_weights":[-1.8394735E-3,-9.161395E-2,4.5650085E-3,8.0519176E-1,-2.5475554E-3,8.460262E-2,-0E0,3.3902892E-4,-9.034913E-2],"categories":[],"categories_nodes":[],"categories_segments":[],"categories_sizes":[],"default_left":[0,0,0,0,0,0,0,0,0],"id":66,"left_children":[1,-1,3,5,7,-1,-1,-1,-1],"loss_changes":[2.6598036E1,0E0,2.560979E1,1.0337906E0,2.400612E1,0E0,0E0,0E0,0E0],"parents":[2147483647,0,0,2,2,3,3,4,4],"right_children":[2,-1,4,6,8,-1,-1,-1,-1],"split_conditions":[-6.3154113E-1,-9.161395E-2,-4.2799634E-1,9.417845E-1,1.6501797E0,8.460262E-2,-0E0,3.3902892E-4,-9.034913E-2],"split_indices":[8,0,9,7,9,0,0,0,0],"split_type":[0,0,0,0,0,0,0,0,0],"sum_hessian":[4.3832065E3,2.959983E1,4.353607E3,3.759771E1,4.3160093E3,3.531182E1,2.2858858E0,4.2886265E3,2.73825E1],"tree_param":{"num_deleted":"0","num_feature":"30","num_nodes":"9","size_leaf_vector":"1"}},{"base_weights":[-1.1676385E-2,-1.843288E-2,9.068907E-2,-9.062614E-2,-1.2233966E-2,2.1238828E-2,-3.6086699E-3],"categories":[],"categories_nodes":[],"categories_segments":[],"categories_sizes":[],"default_left":[0,0,0,0,0,0,0],"id":67,"left_children":[1,3,-1,-1,5,-1,-1],"loss_changes":[2.6179476E1,2.287448E1,0E0,0E0,2.2879723E1,0E0,0E0],"parents":[2147483647,0,0,1,1,4,4],"right_children":[2,4,-1,-1,6,-1,-1],"split_conditions":[1.4461659E0,-6.3154113E-1,9.068907E-2,-9.062614E-2,-1.0776953E-1,2.1238828E-2,-3.6086699E-3],"split_indices":[8,8,0,0,10,0,0],"split_type":[0,0,0,0,0,0,0],"sum_hessian":[4.353982E3,4.3252163E3,2.8765493E1,2.6857695E1,4.298359E3,4.0708536E2,3.8912732E3],"tree_param":{"num_deleted":"0","num_feature":"30","num_nodes":"7","size_leaf_vector":"1"}},{"base_weights":[-3.1703722E-3,6.559976E-2,-8.079922E-2,7.546329E-1,5.3747337E-2,-6.869611E-2,-8.998331E-2,8.127663E-2,-1.18802795E-2,-3.717048E-2,8.844727E-3,-1.9303214E-2,-6.4480887E-4],"categories":[],"categories_nodes":[],"categories_segments":[],"categories_sizes":[],"default_left":[0,0,0,0,0,0,0,0,0,0,0,0,0],"id":68,"left_children":[1,3,5,7,9,11,-1,-1,-1,-1,-1,-1,-1],"loss_changes":[2.3297699E1,1.7941088E1,1.9283188E1,2.786703E0,3.330019E1,1.5500929E1,0E0,0E0,0E0,0E0,0E0,0E0,0E0],"parents":[2147483647,0,0,1,1,2,2,3,3,4,4,5,5],"right_children":[2,4,6,8,10,12,-1,-1,-1,-1,-1,-1,-1],"split_conditions":[6.110917E-1,-4.2799634E-1,1.6501797E0,-9.372774E-2,-9.372876E-2,-3.3204404E-1,-8.998331E-2,8.127663E-2,-1.18802795E-2,-3.717048E-2,8.844727E-3,-1.9303214E-2,-6.4480887E-4],"split_indices":[9,9,9,11,11,6,0,0,0,0,0,0,0],"split_type":[0,0,0,0,0,0,0,0,0,0,0,0,0],"sum_hessian":[4.35722E3,2.3037732E3,2.0534473E3,3.541197E1,2.2683613E3,2.026884E3,2.656317E1,3.4405838E1,1.0061306E0,1.674185E2,2.1009429E3,6.6944604E2,1.357438E3],"tree_param":{"num_deleted":"0","num_feature":"30","num_nodes":"13","size_leaf_vector":"1"}},{"base_weights":[2.2722224E-3,8.387914E-2,-4.2133736E-3,1.0500824E-3,-8.908787E-2,-4.163936E-4,8.889384E-2],"categories":[],"categories_nodes":[],"categories_segments":[],"categories_sizes":[],"default_left":[0,0,0,0,0,0,0],"id":69,"left_children":[1,-1,3,5,-1,-1,-1],"loss_changes":[2.4277243E1,0E0,2.0899908E1,2.0626726E1,0E0,0E0,0E0],"parents":[2147483647,0,0,2,2,3,3],"right_children":[2,-1,4,6,-1,-1,-1],"split_conditions":[-4.2799634E-1,8.387914E-2,1.6501797E0,1.4461659E0,-8.908787E-2,-4.163936E-4,8.889384E-2],"split_indices":[9,0,9,8,0,0,0],"split_type":[0,0,0,0,0,0,0],"sum_hessian":[4.317666E3,3.2429264E1,4.285237E3,4.2608135E3,2.4423391E1,4.236798E3,2.4015738E1],"tree_param":{"num_deleted":"0","num_feature":"30","num_nodes":"7","size_leaf_vector":"1"}},{"base_weights":[-6.757157E-4,-8.9380115E-2,4.488135E-3,7.115896E-2,-6.575219E-2,-5.1913797E-3,1.4019382E-2,-5.608113E-3,-8.7550536E-2],"categories":[],"categories_nodes":[],"categories_segments":[],"categories_sizes":[],"default_left":[0,0,0,0,0,0,0,0,0],"id":70,"left_children":[1,-1,3,5,7,-1,-1,-1,-1],"loss_changes":[2.0863874E1,0E0,2.01763E1,1.8939384E1,1.5339351E1,0E0,0E0,0E0,0E0],"parents":[2147483647,0,0,2,2,3,3,4,4],"right_children":[2,-1,4,6,8,-1,-1,-1,-1],"split_conditions":[-6.3154113E-1,-8.9380115E-2,9.154767E-2,-9.372819E-2,1.6501797E0,-5.1913797E-3,1.4019382E-2,-5.608113E-3,-8.7550536E-2],"split_indices":[8,0,9,11,9,0,0,0,0],"split_type":[0,0,0,0,0,0,0,0,0],"sum_hessian":[4.327289E3,2.4010305E1,4.3032783E3,2.2150269E3,2.0882517E3,7.909541E2,1.4240726E3,2.0669392E3,2.1312477E1],"tree_param":{"num_deleted":"0","num_feature":"30","num_nodes":"9","size_leaf_vector":"1"}},{"base_weights":[1.5518151E-3,-2.8862594E-2,1.5514086E-1,3.639353E-2,-1.0450675E-1,-3.653539E-2,2.3477532E-1,7.20434E-2,2.615724E-3,-1.6060892E-2,2.1700703E-3,3.940027E-2,-1.8998615E-2,3.0054301E-2,-1.130764E-3],"categories":[],"categories_nodes":[],"categories_segments":[],"categories_sizes":[],"default_left":[0,0,0,0,0,0,0,0,0,0,0,0,0,0,0],"id":71,"left_children":[1,3,5,7,9,11,13,-1,-1,-1,-1,-1,-1,-1,-1],"loss_changes":[2.0331503E1,1.787126E1,1.1211365E1,1.272838E1,1.2021719E1,1.3785965E1,8.59687E0,0E0,0E0,0E0,0E0,0E0,0E0,0E0,0E0],"parents":[2147483647,0,0,1,1,2,2,3,3,4,4,5,5,6,6],"right_children":[2,4,6,8,10,12,14,-1,-1,-1,-1,-1,-1,-1,-1],"split_conditions":[7.458005E-1,6.110917E-1,-8.615504E-1,-4.2799634E-1,8.276288E-1,-5.32452E-1,-1.0776606E-1,7.20434E-2,2.615724E-3,-1.6060892E-2,2.1700703E-3,3.940027E-2,-1.8998615E-2,3.0054301E-2,-1.130764E-3],"split_indices":[0,9,23,9,23,1,10,0,0,0,0,0,0,0,0],"split_type":[0,0,0,0,0,0,0,0,0,0,0,0,0,0,0],"sum_hessian":[4.321461E3,3.6030764E3,7.183844E2,1.9278185E3,1.6752578E3,2.0749031E2,5.108941E2,2.49372E1,1.9028813E3,1.1648383E3,5.1041953E2,5.198463E1,1.5550568E2,4.0600656E2,1.0488753E2],"tree_param":{"num_deleted":"0","num_feature":"30","num_nodes":"15","size_leaf_vector":"1"}},{"base_weights":[7.754028E-3,-1.5631233E-1,3.611824E-2,-2.2795363E-1,7.9804316E-2,2.9974252E-2,8.852681E-2,2.4854548E-3,-3.0930493E-2,6.2441792E-2,-4.897457E-3,1.1410153E-2,-2.0530892E-3],"categories":[],"categories_nodes":[],"categories_segments":[],"categories_sizes":[],"default_left":[0,0,0,0,0,0,0,0,0,0,0,0,0],"id":72,"left_children":[1,3,5,7,9,11,-1,-1,-1,-1,-1,-1,-1],"loss_changes":[2.0053143E1,1.0905642E1,1.8339169E1,1.0377838E1,1.086015E1,1.572308E1,0E0,0E0,0E0,0E0,0E0,0E0,0E0],"parents":[2147483647,0,0,1,1,2,2,3,3,4,4,5,5],"right_children":[2,4,6,8,10,12,-1,-1,-1,-1,-1,-1,-1],"split_conditions":[-8.512411E-1,-1.12114355E-1,1.4461659E0,-1.0776953E-1,-8.805514E-1,-1.0776858E-1,8.852681E-2,2.4854548E-3,-3.0930493E-2,6.2441792E-2,-4.897457E-3,1.1410153E-2,-2.0530892E-3],"split_indices":[0,8,8,10,26,10,0,0,0,0,0,0,0],"split_type":[0,0,0,0,0,0,0,0,0,0,0,0,0],"sum_hessian":[4.3305566E3,6.317963E2,3.6987603E3,4.8802628E2,1.4377008E2,3.6754153E3,2.3345068E1,1.161558E2,3.7187048E2,2.7507393E1,1.1626269E2,1.3852546E3,2.2901606E3],"tree_param":{"num_deleted":"0","num_feature":"30","num_nodes":"13","size_leaf_vector":"1"}},{"base_weights":[3.840772E-4,-2.3092385E-2,2.276156E-1,4.309261E-2,-9.287637E-2,3.2235652E-1,1.1955877E-2,7.360171E-2,3.2299843E-3,-1.0796538E-2,4.0639974E-2,1.0072336E-2,4.4405993E-2,-4.405043E-2,1.2604602E-2],"categories":[],"categories_nodes":[],"categories_segments":[],"categories_sizes":[],"default_left":[0,0,0,0,0,0,0,0,0,0,0,0,0,0,0],"id":73,"left_children":[1,3,5,7,9,11,13,-1,-1,-1,-1,-1,-1,-1,-1],"loss_changes":[2.3016338E1,1.7940382E1,7.920912E0,1.4000411E1,1.4047798E1,6.855772E0,6.442044E0,0E0,0E0,0E0,0E0,0E0,0E0,0E0,0E0],"parents":[2147483647,0,0,1,1,2,2,3,3,4,4,5,5,6,6],"right_children":[2,4,6,8,10,12,14,-1,-1,-1,-1,-1,-1,-1,-1],"split_conditions":[1.1064279E0,9.154767E-2,7.2242695E-1,-4.2799634E-1,2.4373877E0,-1.31791E-1,-8.6599326E-1,7.360171E-2,3.2299843E-3,-1.0796538E-2,4.0639974E-2,1.0072336E-2,4.4405993E-2,-4.405043E-2,1.2604602E-2],"split_indices":[17,9,16,9,29,16,6,0,0,0,0,0,0,0,0],"split_type":[0,0,0,0,0,0,0,0,0,0,0,0,0,0,0],"sum_hessian":[4.2722354E3,3.8698203E3,4.024152E2,1.9791637E3,1.8906567E3,2.7568033E2,1.2673488E2,2.6871881E1,1.9522917E3,1.8386595E3,5.1997112E1,1.0192937E2,1.7375096E2,2.2604122E1,1.0413075E2],"tree_param":{"num_deleted":"0","num_feature":"30","num_nodes":"15","size_leaf_vector":"1"}},{"base_weights":[-7.772917E-4,-8.882158E-2,4.018802E-3,-5.6452036E-4,8.763153E-2,1.0407271E-2,-2.981677E-3],"categories":[],"categories_nodes":[],"categories_segments":[],"categories_sizes":[],"default_left":[0,0,0,0,0,0,0],"id":74,"left_children":[1,-1,3,5,-1,-1,-1],"loss_changes":[1.9290262E1,0E0,1.8069998E1,1.3028902E1,0E0,0E0,0E0],"parents":[2147483647,0,0,2,2,3,3],"right_children":[2,-1,4,6,-1,-1,-1],"split_conditions":[-6.3154113E-1,-8.882158E-2,1.4461659E0,-4.9845636E-1,8.763153E-2,1.0407271E-2,-2.981677E-3],"split_indices":[8,0,8,7,0,0,0],"split_type":[0,0,0,0,0,0,0],"sum_hessian":[4.3208135E3,2.2366528E1,4.298447E3,4.2768276E3,2.1619503E1,9.258172E2,3.3510103E3],"tree_param":{"num_deleted":"0","num_feature":"30","num_nodes":"7","size_leaf_vector":"1"}},{"base_weights":[1.6975581E-3,-6.9781214E-2,6.120593E-2,5.952473E-2,-1.7042159E-1,5.3229515E-2,8.6485855E-2,-8.66177E-2,8.491824E-3,-2.041002E-2,1.32434685E-2,2.896735E-2,2.7339042E-3],"categories":[],"categories_nodes":[],"categories_segments":[],"categories_sizes":[],"default_left":[0,0,0,0,0,0,0,0,0,0,0,0,0],"id":75,"left_children":[1,3,5,7,9,11,-1,-1,-1,-1,-1,-1,-1],"loss_changes":[1.8235153E1,2.5389164E1,1.4041746E1,1.9267063E1,1.130781E1,1.3920678E1,0E0,0E0,0E0,0E0,0E0,0E0,0E0],"parents":[2147483647,0,0,1,1,2,2,3,3,4,4,5,5],"right_children":[2,4,6,8,10,12,-1,-1,-1,-1,-1,-1,-1],"split_conditions":[4.0731242E-1,-1.0776912E-1,1.4461659E0,-6.3154113E-1,1.1496105E0,-1.07768916E-1,8.6485855E-2,-8.66177E-2,8.491824E-3,-2.041002E-2,1.32434685E-2,2.896735E-2,2.7339042E-3],"split_indices":[8,10,8,8,15,10,0,0,0,0,0,0,0],"split_type":[0,0,0,0,0,0,0,0,0,0,0,0,0],"sum_hessian":[4.2850156E3,1.9389211E3,2.3460942E3,8.446144E2,1.0943068E3,2.3263813E3,1.9713017E1,1.9731104E1,8.248833E2,9.883527E2,1.0595401E2,2.2377368E2,2.1026077E3],"tree_param":{"num_deleted":"0","num_feature":"30","num_nodes":"13","size_leaf_vector":"1"}},{"base_weights":[-1.0641361E-2,-8.417066E-2,5.064522E-2,-8.628423E-2,-7.529724E-2,4.3160014E-2,8.540203E-2,2.4876306E-2,-1.0201218E-2,8.205681E-3,-9.887471E-3],"categories":[],"categories_nodes":[],"categories_segments":[],"categories_sizes":[],"default_left":[0,0,0,0,0,0,0,0,0,0,0],"id":76,"left_children":[1,3,5,-1,7,9,-1,-1,-1,-1,-1],"loss_changes":[1.9345673E1,1.244334E1,1.3041292E1,0E0,1.6672375E1,1.2772397E1,0E0,0E0,0E0,0E0,0E0],"parents":[2147483647,0,0,1,1,2,2,4,4,5,5],"right_children":[2,4,6,-1,8,10,-1,-1,-1,-1,-1],"split_conditions":[4.0731242E-1,-6.3154113E-1,1.4461659E0,-8.628423E-2,-1.07769795E-1,7.617544E-1,8.540203E-2,2.4876306E-2,-1.0201218E-2,8.205681E-3,-9.887471E-3],"split_indices":[8,8,8,0,10,7,0,0,0,0,0],"split_type":[0,0,0,0,0,0,0,0,0,0,0],"sum_hessian":[4.2816396E3,1.9534886E3,2.3281511E3,1.8571894E1,1.9349167E3,2.309981E3,1.8170355E1,1.432458E2,1.7916709E3,1.8195695E3,4.9041144E2],"tree_param":{"num_deleted":"0","num_feature":"30","num_nodes":"11","size_leaf_vector":"1"}},{"base_weights":[-3.554864E-3,5.839115E-4,-8.6463824E-2,-1.4267755E-1,2.4857221E-2,7.0923805E-2,-1.8181548E-2,9.091293E-3,-3.0567027E-3],"categories":[],"categories_nodes":[],"categories_segments":[],"categories_sizes":[],"default_left":[0,0,0,0,0,0,0,0,0],"id":77,"left_children":[1,3,-1,5,7,-1,-1,-1,-1],"loss_changes":[1.6084686E1,1.4671808E1,0E0,2.0077034E1,1.34023695E1,0E0,0E0,0E0,0E0],"parents":[2147483647,0,0,1,1,3,3,4,4],"right_children":[2,4,-1,6,8,-1,-1,-1,-1],"split_conditions":[1.6501797E0,-9.372837E-2,-8.6463824E-2,-4.2799634E-1,6.110917E-1,7.0923805E-2,-1.8181548E-2,9.091293E-3,-3.0567027E-3],"split_indices":[9,11,0,9,9,0,0,0,0],"split_type":[0,0,0,0,0,0,0,0,0],"sum_hessian":[4.26858E3,4.2489946E3,1.9585371E1,6.082341E2,3.6407605E3,2.4089258E1,5.8414484E2,1.6687151E3,1.9720454E3],"tree_param":{"num_deleted":"0","num_feature":"30","num_nodes":"9","size_leaf_vector":"1"}},{"base_weights":[5.233264E-3,8.268011E-2,-3.8884994E-2,3.5506043E-1,6.285193E-2,-3.7205654E-1,-2.0966908E-2,8.0841474E-2,1.6232996E-3,2.6931528E-2,2.7758838E-3,-6.958304E-2,-1.0556373E-2,-7.4719153E-3,1.072104E-2],"categories":[],"categories_nodes":[],"categories_segments":[],"categories_sizes":[],"default_left":[0,0,0,0,0,0,0,0,0,0,0,0,0,0,0],"id":78,"left_children":[1,3,5,7,9,11,13,-1,-1,-1,-1,-1,-1,-1,-1],"loss_changes":[1.4706691E1,7.992997E0,1.5864429E1,1.4876184E1,1.030416E1,1.0799202E1,1.7840199E1,0E0,0E0,0E0,0E0,0E0,0E0,0E0,0E0],"parents":[2147483647,0,0,1,1,2,2,3,3,4,4,5,5,6,6],"right_children":[2,4,6,8,10,12,14,-1,-1,-1,-1,-1,-1,-1,-1],"split_conditions":[-1.4826083E-1,-1.0776967E-1,-9.3728654E-2,-2.3380727E-1,-6.668709E-1,-7.3266774E-2,4.107175E-1,8.0841474E-2,1.6232996E-3,2.6931528E-2,2.7758838E-3,-6.958304E-2,-1.0556373E-2,-7.4719153E-3,1.072104E-2],"split_indices":[1,10,11,13,21,23,6,0,0,0,0,0,0,0,0],"split_type":[0,0,0,0,0,0,0,0,0,0,0,0,0,0,0],"sum_hessian":[4.287505E3,1.5636077E3,2.7238975E3,1.0038391E2,1.4632238E3,1.341502E2,2.589747E3,4.0487736E1,5.989617E1,2.064967E2,1.256727E3,5.7417088E1,7.673312E1,1.8306742E3,7.59073E2],"tree_param":{"num_deleted":"0","num_feature":"30","num_nodes":"15","size_leaf_vector":"1"}},{"base_weights":[-3.9460924E-3,-0E0,-8.529881E-2,3.1550486E-2,-8.5793495E-2,6.8566106E-2,2.6234488E-3,-1.6141063E-2,8.7738065E-3],"categories":[],"categories_nodes":[],"categories_segments":[],"categories_sizes":[],"default_left":[0,0,0,0,0,0,0,0,0],"id":79,"left_children":[1,3,-1,5,7,-1,-1,-1,-1],"loss_changes":[1.4456631E1,1.1464923E1,0E0,1.0038855E1,1.503608E1,0E0,0E0,0E0,0E0],"parents":[2147483647,0,0,1,1,3,3,4,4],"right_children":[2,4,-1,6,8,-1,-1,-1,-1],"split_conditions":[1.6501797E0,5.817243E-1,-8.529881E-2,-4.2799634E-1,8.276288E-1,6.8566106E-2,2.6234488E-3,-1.6141063E-2,8.7738065E-3],"split_indices":[9,7,0,9,23,0,0,0,0],"split_type":[0,0,0,0,0,0,0,0,0],"sum_hessian":[4.2541436E3,4.236183E3,1.7960327E1,3.1000845E3,1.1360989E3,2.1411564E1,3.0786729E3,7.954016E2,3.406973E2],"tree_param":{"num_deleted":"0","num_feature":"30","num_nodes":"9","size_leaf_vector":"1"}},{"base_weights":[6.450691E-3,-8.565267E-2,1.0667598E-2,9.8714866E-2,-2.4751034E-2,1.4492537E-2,-1.5389832E-2,-1.0292416E-2,3.1614841E-3],"categories":[],"categories_nodes":[],"categories_segments":[],"categories_sizes":[],"default_left":[0,0,0,0,0,0,0,0,0],"id":80,"left_children":[1,-1,3,5,7,-1,-1,-1,-1],"loss_changes":[1.461653E1,0E0,1.3259047E1,1.4288097E1,1.3329747E1,0E0,0E0,0E0,0E0],"parents":[2147483647,0,0,2,2,3,3,4,4],"right_children":[2,-1,4,6,8,-1,-1,-1,-1],"split_conditions":[-6.3154113E-1,-8.565267E-2,-6.2690336E-1,1.0323683E0,4.0731242E-1,1.4492537E-2,-1.5389832E-2,-1.0292416E-2,3.1614841E-3],"split_indices":[8,0,22,14,8,0,0,0,0],"split_type":[0,0,0,0,0,0,0,0,0],"sum_hessian":[4.241944E3,1.7508492E1,4.224435E3,1.2189368E3,3.0054985E3,1.034506E3,1.8443085E2,1.2659113E3,1.7395873E3],"tree_param":{"num_deleted":"0","num_feature":"30","num_nodes":"9","size_leaf_vector":"1"}},{"base_weights":[-1.4371904E-2,-1.8294891E-2,8.3924845E-2,-1.4415854E-2,-8.421876E-2,-8.349967E-2,-1.0796188E-3],"categories":[],"categories_nodes":[],"categories_segments":[],"categories_sizes":[],"default_left":[0,0,0,0,0,0,0],"id":81,"left_children":[1,3,-1,5,-1,-1,-1],"loss_changes":[1.3483412E1,1.26890135E1,0E0,1.1698347E1,0E0,0E0,0E0],"parents":[2147483647,0,0,1,1,3,3],"right_children":[2,4,-1,6,-1,-1,-1],"split_conditions":[1.4461659E0,1.6501797E0,8.3924845E-2,-6.3154113E-1,-8.421876E-2,-8.349967E-2,-1.0796188E-3],"split_indices":[8,9,0,8,0,0,0],"split_type":[0,0,0,0,0,0,0],"sum_hessian":[4.260393E3,4.2440176E3,1.6375643E1,4.2273633E3,1.6654459E1,1.5334718E1,4.2120283E3],"tree_param":{"num_deleted":"0","num_feature":"30","num_nodes":"7","size_leaf_vector":"1"}},{"base_weights":[-1.5157317E-4,2.969818E-3,-8.2776956E-2,-1.0062985E-4,8.251341E-2,-8.248047E-2,2.8565456E-4],"categories":[],"categories_nodes":[],"categories_segments":[],"categories_sizes":[],"default_left":[0,0,0,0,0,0,0],"id":82,"left_children":[1,3,-1,5,-1,-1,-1],"loss_changes":[1.1785574E1,1.1492997E1,0E0,1.1096226E1,0E0,0E0,0E0],"parents":[2147483647,0,0,1,1,3,3],"right_children":[2,4,-1,6,-1,-1,-1],"split_conditions":[1.6501797E0,1.4461659E0,-8.2776956E-2,-6.3154113E-1,8.251341E-2,-8.248047E-2,2.8565456E-4],"split_indices":[9,8,0,8,0,0,0],"split_type":[0,0,0,0,0,0,0],"sum_hessian":[4.239E3,4.223854E3,1.5145883E1,4.208919E3,1.4935141E1,1.4260444E1,4.194658E3],"tree_param":{"num_deleted":"0","num_feature":"30","num_nodes":"7","size_leaf_vector":"1"}},{"base_weights":[-1.3324863E-3,-5.9125077E-2,4.6033964E-2,1.291619E-1,-1.09768316E-1,4.0373765E-2,8.114688E-2,-7.9161346E-2,1.6427895E-2,2.6477164E-2,-1.2433636E-2,5.8711763E-3,-1.772671E-2],"categories":[],"categories_nodes":[],"categories_segments":[],"categories_sizes":[],"default_left":[0,0,0,0,0,0,0,0,0,0,0,0,0],"id":83,"left_children":[1,3,5,7,9,11,-1,-1,-1,-1,-1,-1,-1],"loss_changes":[1.1691542E1,1.842294E1,9.199556E0,1.2762259E1,8.257507E0,9.167104E0,0E0,0E0,0E0,0E0,0E0,0E0,0E0],"parents":[2147483647,0,0,1,1,2,2,3,3,4,4,5,5],"right_children":[2,4,6,8,10,12,-1,-1,-1,-1,-1,-1,-1],"split_conditions":[4.0731242E-1,-1.0776953E-1,1.4461659E0,-6.3154113E-1,-9.6589905E-1,1.21988E0,8.114688E-2,-7.9161346E-2,1.6427895E-2,2.6477164E-2,-1.2433636E-2,5.8711763E-3,-1.772671E-2],"split_indices":[8,10,8,8,21,21,0,0,0,0,0,0,0],"split_type":[0,0,0,0,0,0,0,0,0,0,0,0,0],"sum_hessian":[4.2622217E3,1.9291046E3,2.333117E3,4.0404715E2,1.5250574E3,2.3193777E3,1.3739274E1,1.2214717E1,3.9183243E2,5.324149E1,1.4718159E3,2.1447227E3,1.7465497E2],"tree_param":{"num_deleted":"0","num_feature":"30","num_nodes":"13","size_leaf_vector":"1"}},{"base_weights":[-5.550625E-3,2.467279E-2,-9.736946E-2,-1.3808756E-1,4.5320686E-2,-3.1768945E-1,-5.7154667E-2,-8.161391E-3,-8.118238E-2,4.319159E-2,3.512904E-3,-2.3936355E-2,-7.562507E-2,3.5458412E-2,-9.000748E-3],"categories":[],"categories_nodes":[],"categories_segments":[],"categories_sizes":[],"default_left":[0,0,0,0,0,0,0,0,0,0,0,0,0,0,0],"id":84,"left_children":[1,3,5,7,9,11,13,-1,-1,-1,-1,-1,-1,-1,-1],"loss_changes":[1.1854254E1,1.0627489E1,8.976601E0,1.243331E1,1.0670506E1,4.1133804E0,1.2004221E1,0E0,0E0,0E0,0E0,0E0,0E0,0E0,0E0],"parents":[2147483647,0,0,1,1,2,2,3,3,4,4,5,5,6,6],"right_children":[2,4,6,8,10,12,14,-1,-1,-1,-1,-1,-1,-1,-1],"split_conditions":[-1.6421683E-1,-7.2734696E-1,-8.2712305E-1,1.2425884E0,-1.07769854E-1,1.0545975E0,-8.566366E-1,-8.161391E-3,-8.118238E-2,4.319159E-2,3.512904E-3,-2.3936355E-2,-7.562507E-2,3.5458412E-2,-9.000748E-3],"split_indices":[3,14,4,24,10,20,14,0,0,0,0,0,0,0,0],"split_type":[0,0,0,0,0,0,0,0,0,0,0,0,0,0,0],"sum_hessian":[4.2417544E3,3.1842024E3,1.0575519E3,3.5174103E2,2.8324614E3,1.5726991E2,9.002819E2,3.2797607E2,2.376495E1,6.8107086E1,2.7643542E3,1.3799596E2,1.9273947E1,6.28292E1,8.374527E2],"tree_param":{"num_deleted":"0","num_feature":"30","num_nodes":"15","size_leaf_vector":"1"}},{"base_weights":[-4.5235413E-3,-2.7555864E-2,1.0984148E-1,6.901929E-2,-6.1156068E-2,1.4283136E-1,-3.532124E-1,4.4216514E-2,3.0057007E-3,-2.0676553E-2,-3.2475088E-3,1.629795E-2,-3.7864435E-2,-5.499653E-2,6.408423E-2],"categories":[],"categories_nodes":[],"categories_segments":[],"categories_sizes":[],"default_left":[0,0,0,0,0,0,0,0,0,0,0,0,0,0,0],"id":85,"left_children":[1,3,5,7,9,11,13,-1,-1,-1,-1,-1,-1,-1,-1],"loss_changes":[1.1059878E1,1.1448296E1,1.0611614E1,1.2641945E1,1.0714138E1,6.827379E0,9.461267E0,0E0,0E0,0E0,0E0,0E0,0E0,0E0,0E0],"parents":[2147483647,0,0,1,1,2,2,3,3,4,4,5,5,6,6],"right_children":[2,4,6,8,10,12,14,-1,-1,-1,-1,-1,-1,-1,-1],"split_conditions":[7.0927775E-1,-8.430157E-1,1.4088789E0,-1.0385467E0,-3.6165747E-1,1.4009922E0,4.2055836E0,4.4216514E-2,3.0057007E-3,-2.0676553E-2,-3.2475088E-3,1.629795E-2,-3.7864435E-2,-5.499653E-2,6.408423E-2],"split_indices":[0,22,24,7,28,14,24,0,0,0,0,0,0,0,0],"split_type":[0,0,0,0,0,0,0,0,0,0,0,0,0,0,0],"sum_hessian":[4.2256846E3,3.5258623E3,6.998222E2,9.018516E2,2.6240107E3,6.565869E2,4.3235294E1,8.088118E1,8.2097046E2,4.2402228E2,2.1999885E3,6.353323E2,2.1254639E1,3.7677307E1,5.557986E0],"tree_param":{"num_deleted":"0","num_feature":"30","num_nodes":"15","size_leaf_vector":"1"}},{"base_weights":[-8.6531555E-3,7.449572E-1,-1.32799465E-2,7.8266996E-1,-0E0,5.206848E-2,-5.095929E-2,8.278403E-2,-0E0,3.9518476E-3,4.6327934E-2,-1.0600966E-2,4.3829414E-3],"categories":[],"categories_nodes":[],"categories_segments":[],"categories_sizes":[],"default_left":[0,0,0,0,0,0,0,0,0,0,0,0,0],"id":86,"left_children":[1,3,5,7,-1,9,11,-1,-1,-1,-1,-1,-1],"loss_changes":[1.4071426E1,3.779173E-1,1.0388176E1,5.4865074E-1,0E0,7.3750453E0,1.408539E1,0E0,0E0,0E0,0E0,0E0,0E0],"parents":[2147483647,0,0,1,1,2,2,3,3,5,5,6,6],"right_children":[2,4,6,8,-1,10,12,-1,-1,-1,-1,-1,-1],"split_conditions":[-4.2799634E-1,-1.0776336E-1,-1.4826083E-1,-1.6421625E-1,-0E0,1.9357108E0,6.865172E-1,8.278403E-2,-0E0,3.9518476E-3,4.6327934E-2,-1.0600966E-2,4.3829414E-3],"split_indices":[9,10,1,3,0,21,29,0,0,0,0,0,0],"split_type":[0,0,0,0,0,0,0,0,0,0,0,0,0],"sum_hessian":[4.2377983E3,2.2587584E1,4.215211E3,2.0892115E1,1.6954691E0,1.5316025E3,2.6836084E3,1.926267E1,1.6294427E0,1.4907301E3,4.0872486E1,1.7041837E3,9.794246E2],"tree_param":{"num_deleted":"0","num_feature":"30","num_nodes":"13","size_leaf_vector":"1"}},{"base_weights":[1.1968275E-2,-4.7526985E-2,6.132518E-2,-2.0784125E-1,-1.1835981E-2,-1.3924652E-3,1.5948388E-1,-8.799164E-3,-3.6119174E-2,2.457426E-3,-1.820089E-2,4.1525405E-2,-2.5055713E-3,2.0996228E-2,-1.598697E-2],"categories":[],"categories_nodes":[],"categories_segments":[],"categories_sizes":[],"default_left":[0,0,0,0,0,0,0,0,0,0,0,0,0,0,0],"id":87,"left_children":[1,3,5,7,9,11,13,-1,-1,-1,-1,-1,-1,-1,-1],"loss_changes":[1.24782295E1,1.0736584E1,1.4496346E1,5.8024654E0,9.919469E0,1.3599028E1,1.4854275E1,0E0,0E0,0E0,0E0,0E0,0E0,0E0,0E0],"parents":[2147483647,0,0,1,1,2,2,3,3,4,4,5,5,6,6],"right_children":[2,4,6,8,10,12,14,-1,-1,-1,-1,-1,-1,-1,-1],"split_conditions":[4.0731242E-1,-9.3811107E-1,-9.372683E-2,6.110917E-1,7.9506564E-1,-1.2185768E0,9.132381E-1,-8.799164E-3,-3.6119174E-2,2.457426E-3,-1.820089E-2,4.1525405E-2,-2.5055713E-3,2.0996228E-2,-1.598697E-2],"split_indices":[8,6,11,9,1,7,14,0,0,0,0,0,0,0,0],"split_type":[0,0,0,0,0,0,0,0,0,0,0,0,0,0,0],"sum_hessian":[4.240667E3,1.9136952E3,2.326972E3,3.4161023E2,1.572085E3,1.414789E3,9.12183E2,1.97177E2,1.4443321E2,1.2915742E3,2.8051074E2,7.198414E1,1.3428048E3,7.9097455E2,1.2120843E2],"tree_param":{"num_deleted":"0","num_feature":"30","num_nodes":"15","size_leaf_vector":"1"}},{"base_weights":[-9.009712E-3,-5.720025E-3,-8.140158E-2,-8.807345E-3,7.997253E-2,-2.0166927E-3,1.9679595E-2],"categories":[],"categories_nodes":[],"categories_segments":[],"categories_sizes":[],"default_left":[0,0,0,0,0,0,0],"id":88,"left_children":[1,3,-1,5,-1,-1,-1],"loss_changes":[1.0341871E1,9.678017E0,0E0,9.620887E0,0E0,0E0,0E0],"parents":[2147483647,0,0,1,1,3,3],"right_children":[2,4,-1,6,-1,-1,-1],"split_conditions":[1.6501797E0,1.4461659E0,-8.140158E-2,1.4479291E0,7.997253E-2,-2.0166927E-3,1.9679595E-2],"split_indices":[9,8,0,17,0,0,0],"split_type":[0,0,0,0,0,0,0],"sum_hessian":[4.216277E3,4.20236E3,1.3916667E1,4.189521E3,1.2839008E1,3.9764878E3,2.1303336E2],"tree_param":{"num_deleted":"0","num_feature":"30","num_nodes":"7","size_leaf_vector":"1"}},{"base_weights":[2.968416E-3,6.0651074E-3,-8.021016E-2,3.7581068E-2,-6.4326346E-2,-2.3409232E-2,5.0796247E-3,-4.580692E-2,-3.1714563E-3],"categories":[],"categories_nodes":[],"categories_segments":[],"categories_sizes":[],"default_left":[0,0,0,0,0,0,0,0,0],"id":89,"left_children":[1,3,-1,5,7,-1,-1,-1,-1],"loss_changes":[9.759685E0,9.333677E0,0E0,1.03384E1,1.6111456E1,0E0,0E0,0E0,0E0],"parents":[2147483647,0,0,1,1,3,3,4,4],"right_children":[2,4,-1,6,8,-1,-1,-1,-1],"split_conditions":[1.6501797E0,-1.0776744E-1,-8.021016E-2,-9.372869E-2,-7.697055E-1,-2.3409232E-2,5.0796247E-3,-4.580692E-2,-3.1714563E-3],"split_indices":[9,10,0,11,15,0,0,0,0],"split_type":[0,0,0,0,0,0,0,0,0],"sum_hessian":[4.2281514E3,4.215165E3,1.2986517E1,2.9220366E3,1.2931282E3,1.304843E2,2.7915522E3,9.456988E1,1.1985583E3],"tree_param":{"num_deleted":"0","num_feature":"30","num_nodes":"9","size_leaf_vector":"1"}},{"base_weights":[2.0625864E-3,-1.2085889E-1,2.3459906E-2,-1.6724724E-1,2.0580028E-1,4.881145E-2,-7.112254E-2,-2.1001684E-2,2.815131E-2,6.2482517E-2,-0E0,-5.010582E-3,8.122829E-3,2.1144519E-2,-1.1788989E-2],"categories":[],"categories_nodes":[],"categories_segments":[],"categories_sizes":[],"default_left":[0,0,0,0,0,0,0,0,0,0,0,0,0,0,0],"id":90,"left_children":[1,3,5,7,9,11,13,-1,-1,-1,-1,-1,-1,-1,-1],"loss_changes":[1.109068E1,9.482084E0,8.688227E0,1.0602504E1,5.9950323E0,9.24879E0,9.996246E0,0E0,0E0,0E0,0E0,0E0,0E0,0E0,0E0],"parents":[2147483647,0,0,1,1,2,2,3,3,4,4,5,5,6,6],"right_children":[2,4,6,8,10,12,14,-1,-1,-1,-1,-1,-1,-1,-1],"split_conditions":[-7.97287E-1,4.0630743E-2,7.617544E-1,-2.6097327E-1,-4.8577005E-1,-9.37281E-2,-1.0776933E-1,-2.1001684E-2,2.815131E-2,6.2482517E-2,-0E0,-5.010582E-3,8.122829E-3,2.1144519E-2,-1.1788989E-2],"split_indices":[0,6,7,12,24,11,10,0,0,0,0,0,0,0,0],"split_type":[0,0,0,0,0,0,0,0,0,0,0,0,0,0,0],"sum_hessian":[4.2495586E3,6.217502E2,3.6278086E3,5.47971E2,7.3779175E1,2.8700667E3,7.577419E2,5.032962E2,4.4674812E1,2.1576876E1,5.22023E1,7.005271E2,2.1695396E3,1.0356695E2,6.541749E2],"tree_param":{"num_deleted":"0","num_feature":"30","num_nodes":"15","size_leaf_vector":"1"}},{"base_weights":[2.676055E-3,6.897705E-1,-9.1103936E-4,8.165037E-2,-0E0,-1.6655698E-1,1.6449405E-2,3.2714978E-2,-2.327307E-2,-2.8461639E-2,9.922717E-3,7.2560306E-3,-3.5005868E-3],"categories":[],"categories_nodes":[],"categories_segments":[],"categories_sizes":[],"default_left":[0,0,0,0,0,0,0,0,0,0,0,0,0],"id":91,"left_children":[1,3,5,-1,7,9,11,-1,-1,-1,-1,-1,-1],"loss_changes":[1.1122517E1,1.6008682E0,1.2266081E1,0E0,6.843655E-1,1.2954552E1,1.1037667E1,0E0,0E0,0E0,0E0,0E0,0E0],"parents":[2147483647,0,0,1,1,2,2,4,4,5,5,6,6],"right_children":[2,4,6,-1,8,10,12,-1,-1,-1,-1,-1,-1],"split_conditions":[-4.2799634E-1,-9.372878E-2,-9.372853E-2,8.165037E-2,-2.6097474E-1,4.688451E-1,6.110917E-1,3.2714978E-2,-2.327307E-2,-2.8461639E-2,9.922717E-3,7.2560306E-3,-3.5005868E-3],"split_indices":[9,11,11,0,12,18,9,0,0,0,0,0,0],"split_type":[0,0,0,0,0,0,0,0,0,0,0,0,0],"sum_hessian":[4.2307725E3,2.143363E1,4.209339E3,1.7124971E1,4.3086605E0,4.0314224E2,3.8061968E3,2.43291E0,1.8757503E0,2.8165424E2,1.2148802E2,1.8296337E3,1.9765631E3],"tree_param":{"num_deleted":"0","num_feature":"30","num_nodes":"13","size_leaf_vector":"1"}},{"base_weights":[-3.339034E-3,1.2487382E-2,-1.6245097E-1,-9.405755E-2,3.677604E-2,-2.4298023E-1,5.1574763E-3,-5.5064866E-3,-3.71E-2,-0E0,1.2006951E-2,-1.0558746E-3,-3.9331738E-2,1.54142855E-2,-1.9945133E-2],"categories":[],"categories_nodes":[],"categories_segments":[],"categories_sizes":[],"default_left":[0,0,0,0,0,0,0,0,0,0,0,0,0,0,0],"id":92,"left_children":[1,3,5,7,9,11,13,-1,-1,-1,-1,-1,-1,-1,-1],"loss_changes":[1.0838574E1,9.926424E0,5.5004663E0,7.1853957E0,9.600617E0,8.92808E0,3.808492E0,0E0,0E0,0E0,0E0,0E0,0E0,0E0,0E0],"parents":[2147483647,0,0,1,1,2,2,3,3,4,4,5,5,6,6],"right_children":[2,4,6,8,10,12,14,-1,-1,-1,-1,-1,-1,-1,-1],"split_conditions":[1.1346631E0,-1.8868692E-1,5.4180366E-1,-9.3724735E-2,4.5508805E-1,-4.8282844E-1,4.0115526E-1,-5.5064866E-3,-3.71E-2,-0E0,1.2006951E-2,-1.0558746E-3,-3.9331738E-2,1.54142855E-2,-1.9945133E-2],"split_indices":[1,2,4,11,17,22,18,0,0,0,0,0,0,0,0],"split_type":[0,0,0,0,0,0,0,0,0,0,0,0,0,0,0],"sum_hessian":[4.240981E3,3.8532656E3,3.8771533E2,7.0663135E2,3.1466343E3,2.6531082E2,1.2240451E2,6.246859E2,8.1945435E1,2.1873125E3,9.593218E2,1.0766017E2,1.5765065E2,7.394345E1,4.8461063E1],"tree_param":{"num_deleted":"0","num_feature":"30","num_nodes":"15","size_leaf_vector":"1"}},{"base_weights":[1.1538774E-2,-8.018815E-2,1.4578735E-2,6.784239E-1,1.0921598E-2,7.99529E-2,-3.0680797E-3,-2.7276142E-2,2.336843E-3],"categories":[],"categories_nodes":[],"categories_segments":[],"categories_sizes":[],"default_left":[0,0,0,0,0,0,0,0,0],"id":93,"left_children":[1,-1,3,5,7,-1,-1,-1,-1],"loss_changes":[9.6568775E0,0E0,9.496669E0,2.6633654E0,1.4530639E1,0E0,0E0,0E0,0E0],"parents":[2147483647,0,0,2,2,3,3,4,4],"right_children":[2,-1,4,6,8,-1,-1,-1,-1],"split_conditions":[-6.3154113E-1,-8.018815E-2,-4.2799634E-1,-9.372853E-2,-9.372876E-2,7.99529E-2,-3.0680797E-3,-2.7276142E-2,2.336843E-3],"split_indices":[8,0,9,11,11,0,0,0,0],"split_type":[0,0,0,0,0,0,0,0,0],"sum_hessian":[4.212227E3,1.2501926E1,4.199725E3,1.9489729E1,4.1802354E3,1.7633385E1,1.8563436E0,1.7056726E2,4.009668E3],"tree_param":{"num_deleted":"0","num_feature":"30","num_nodes":"9","size_leaf_vector":"1"}},{"base_weights":[-3.1846005E-3,-3.9009025E-4,-7.848112E-2,-3.153498E-3,7.812763E-2,-7.80524E-2,-4.8005608E-5],"categories":[],"categories_nodes":[],"categories_segments":[],"categories_sizes":[],"default_left":[0,0,0,0,0,0,0],"id":94,"left_children":[1,3,-1,5,-1,-1,-1],"loss_changes":[8.462593E0,8.347236E0,0E0,7.9691367E0,0E0,0E0,0E0],"parents":[2147483647,0,0,1,1,3,3],"right_children":[2,4,-1,6,-1,-1,-1],"split_conditions":[1.6501797E0,1.4461659E0,-7.848112E-2,-6.3154113E-1,7.812763E-2,-7.80524E-2,-4.8005608E-5],"split_indices":[9,8,0,8,0,0,0],"split_type":[0,0,0,0,0,0,0],"sum_hessian":[4.232107E3,4.220299E3,1.1808241E1,4.208691E3,1.1607643E1,1.1148078E1,4.197543E3],"tree_param":{"num_deleted":"0","num_feature":"30","num_nodes":"7","size_leaf_vector":"1"}},{"base_weights":[6.727954E-3,-9.8547805E-3,1.4631781E-1,1.0036793E-1,-3.4643974E-2,-1.748533E-1,2.0584E-1,-7.280003E-2,1.1494349E-2,-1.1347413E-2,8.117825E-4,-3.2197483E-2,5.441169E-2,3.077734E-2,-0E0],"categories":[],"categories_nodes":[],"categories_segments":[],"categories_sizes":[],"default_left":[0,0,0,0,0,0,0,0,0,0,0,0,0,0,0],"id":95,"left_children":[1,3,5,7,9,11,13,-1,-1,-1,-1,-1,-1,-1,-1],"loss_changes":[9.921935E0,1.0249961E1,8.806274E0,7.8350034E0,1.0520088E1,7.494162E0,7.846361E0,0E0,0E0,0E0,0E0,0E0,0E0,0E0,0E0],"parents":[2147483647,0,0,1,1,2,2,3,3,4,4,5,5,6,6],"right_children":[2,4,6,8,10,12,14,-1,-1,-1,-1,-1,-1,-1,-1],"split_conditions":[1.0501904E0,-1.07769236E-1,-1.886873E-1,-6.3154113E-1,4.0731242E-1,1.0231357E0,6.994639E-1,-7.280003E-2,1.1494349E-2,-1.1347413E-2,8.117825E-4,-3.2197483E-2,5.441169E-2,3.077734E-2,-0E0],"split_indices":[17,10,2,8,8,25,16,0,0,0,0,0,0,0,0],"split_type":[0,0,0,0,0,0,0,0,0,0,0,0,0,0,0],"sum_hessian":[4.2241387E3,3.7708691E3,4.5326968E2,6.838333E2,3.0870356E3,6.763698E1,3.856327E2,8.945318E0,6.74888E2,1.0927185E3,1.9943173E3,5.8218964E1,9.418015E0,2.54221E2,1.3141171E2],"tree_param":{"num_deleted":"0","num_feature":"30","num_nodes":"15","size_leaf_vector":"1"}},{"base_weights":[6.9819123E-4,-1.0068191E-2,1.9939451E-1,-1.6873812E-2,3.1124708E-1,-2.0778641E-2,3.4733948E-1,-2.4386666E-4,-1.4940533E-2,3.9949995E-2,-4.387844E-2,-1.3502665E-2,5.7721984E-2,4.2222228E-2,-2.4568327E-2],"categories":[],"categories_nodes":[],"categories_segments":[],"categories_sizes":[],"default_left":[0,0,0,0,0,0,0,0,0,0,0,0,0,0,0],"id":96,"left_children":[1,3,5,7,9,11,13,-1,-1,-1,-1,-1,-1,-1,-1],"loss_changes":[9.217009E0,8.459806E0,7.5620184E0,7.347766E0,5.605933E0,5.743916E0,6.3976097E0,0E0,0E0,0E0,0E0,0E0,0E0,0E0,0E0],"parents":[2147483647,0,0,1,1,2,2,3,3,4,4,5,5,6,6],"right_children":[2,4,6,8,10,12,14,-1,-1,-1,-1,-1,-1,-1,-1],"split_conditions":[1.4479291E0,1.5076575E0,-2.0379178E-1,1.0301716E0,1.9105427E0,4.538012E-1,1.726163E0,-2.4386666E-4,-1.4940533E-2,3.9949995E-2,-4.387844E-2,-1.3502665E-2,5.7721984E-2,4.2222228E-2,-2.4568327E-2],"split_indices":[17,4,0,1,6,4,16,0,0,0,0,0,0,0,0],"split_type":[0,0,0,0,0,0,0,0,0,0,0,0,0,0,0],"sum_hessian":[4.2161636E3,3.9964797E3,2.1968387E2,3.9184915E3,7.7988464E1,8.6264305E1,1.3341956E2,3.5422559E3,3.7623535E2,7.180722E1,6.181245E0,7.513111E1,1.1133198E1,1.2046977E2,1.2949783E1],"tree_param":{"num_deleted":"0","num_feature":"30","num_nodes":"15","size_leaf_vector":"1"}},{"base_weights":[-6.460987E-3,1.7726383E-1,-1.743158E-2,2.816613E-1,-9.8867446E-2,-6.0419597E-2,3.3233117E-2,8.5915536E-2,1.862003E-2,-3.0916838E-2,3.1434078E-2,-6.965738E-3,2.8519783E-2,9.6018305E-3,-5.1133693E-3],"categories":[],"categories_nodes":[],"categories_segments":[],"categories_sizes":[],"default_left":[0,0,0,0,0,0,0,0,0,0,0,0,0,0,0],"id":97,"left_children":[1,3,5,7,9,11,13,-1,-1,-1,-1,-1,-1,-1,-1],"loss_changes":[8.366169E0,6.9617257E0,8.73391E0,8.138061E0,5.6496115E0,6.7621527E0,9.7203045E0,0E0,0E0,0E0,0E0,0E0,0E0,0E0,0E0],"parents":[2147483647,0,0,1,1,2,2,3,3,4,4,5,5,6,6],"right_children":[2,4,6,8,10,12,14,-1,-1,-1,-1,-1,-1,-1,-1],"split_conditions":[-1.0727208E0,-1.6422066E-1,2.7100438E-1,-1.07769355E-1,-1.0776771E-1,2.0284731E0,-1.07767686E-1,8.5915536E-2,1.862003E-2,-3.0916838E-2,3.1434078E-2,-6.965738E-3,2.8519783E-2,9.6018305E-3,-5.1133693E-3],"split_indices":[1,3,0,10,10,21,10,0,0,0,0,0,0,0,0],"split_type":[0,0,0,0,0,0,0,0,0,0,0,0,0,0,0],"sum_hessian":[4.2250034E3,2.3122375E2,3.9937798E3,1.7038672E2,6.0837025E1,2.1710437E3,1.8227361E3,2.0414295E1,1.4997243E2,4.2255096E1,1.8581928E1,2.1188992E3,5.2144394E1,1.0516686E3,7.710675E2],"tree_param":{"num_deleted":"0","num_feature":"30","num_nodes":"15","size_leaf_vector":"1"}},{"base_weights":[9.22363E-3,2.5848484E-2,-1.23613365E-1,2.4076062E-3,1.3020112E-1,-1.5566407E-1,6.046327E-1,6.4108223E-3,-4.2926273E-3,-2.5954694E-2,1.7314835E-2,-3.1182102E-3,-3.297884E-2,-3.0711466E-3,8.479388E-2],"categories":[],"categories_nodes":[],"categories_segments":[],"categories_sizes":[],"default_left":[0,0,0,0,0,0,0,0,0,0,0,0,0,0,0],"id":98,"left_children":[1,3,5,7,9,11,13,-1,-1,-1,-1,-1,-1,-1,-1],"loss_changes":[9.12414E0,8.959294E0,1.0425105E1,8.544406E0,1.1284656E1,9.186478E0,3.7126741E0,0E0,0E0,0E0,0E0,0E0,0E0,0E0,0E0],"parents":[2147483647,0,0,1,1,2,2,3,3,4,4,5,5,6,6],"right_children":[2,4,6,8,10,12,14,-1,-1,-1,-1,-1,-1,-1,-1],"split_conditions":[1.678295E0,7.503744E-1,2.0957718E0,-2.3380704E-1,-1.8868762E-1,9.154767E-2,-6.7848647E-1,6.4108223E-3,-4.2926273E-3,-2.5954694E-2,1.7314835E-2,-3.1182102E-3,-3.297884E-2,-3.0711466E-3,8.479388E-2],"split_indices":[22,17,28,13,2,9,7,0,0,0,0,0,0,0,0],"split_type":[0,0,0,0,0,0,0,0,0,0,0,0,0,0,0],"sum_hessian":[4.1709453E3,3.7151274E3,4.558179E2,3.0431658E3,6.719616E2,4.3942413E2,1.6393757E1,1.2979082E3,1.7452576E3,6.3383385E1,6.085782E2,2.609625E2,1.7846164E2,3.88538E0,1.2508376E1],"tree_param":{"num_deleted":"0","num_feature":"30","num_nodes":"15","size_leaf_vector":"1"}},{"base_weights":[1.8543566E-3,8.8887066E-2,-2.7154272E-2,-1.2381768E-2,2.3990466E-1,-4.5086775E-2,1.8260103E-1,-1.7039953E-2,8.369039E-3,3.374243E-2,9.962941E-4,-1.7542739E-3,-1.5739195E-2,-5.012393E-2,2.520868E-2],"categories":[],"categories_nodes":[],"categories_segments":[],"categories_sizes":[],"default_left":[0,0,0,0,0,0,0,0,0,0,0,0,0,0,0],"id":99,"left_children":[1,3,5,7,9,11,13,-1,-1,-1,-1,-1,-1,-1,-1],"loss_changes":[1.0728646E1,1.6517868E1,1.1766256E1,9.760145E0,9.321274E0,8.844053E0,1.1640865E1,0E0,0E0,0E0,0E0,0E0,0E0,0E0,0E0],"parents":[2147483647,0,0,1,1,2,2,3,3,4,4,5,5,6,6],"right_children":[2,4,6,8,10,12,14,-1,-1,-1,-1,-1,-1,-1,-1],"split_conditions":[-1.07769035E-1,5.716926E-1,9.9840117E-1,-1.8868673E-1,3.876259E-1,7.459338E-1,-1.6422111E-1,-1.7039953E-2,8.369039E-3,3.374243E-2,9.962941E-4,-1.7542739E-3,-1.5739195E-2,-5.012393E-2,2.520868E-2],"split_indices":[10,23,19,2,15,16,3,0,0,0,0,0,0,0,0],"split_type":[0,0,0,0,0,0,0,0,0,0,0,0,0,0,0],"sum_hessian":[4.2211104E3,1.0628011E3,3.1583093E3,6.333236E2,4.294776E2,2.915402E3,2.429074E2,2.4281213E2,3.9051147E2,2.9786673E2,1.3161086E2,2.3502058E3,5.6519617E2,1.9931738E1,2.2297566E2],"tree_param":{"num_deleted":"0","num_feature":"30","num_nodes":"15","size_leaf_vector":"1"}},{"base_weights":[-5.4701185E-3,4.7727812E-2,-4.255594E-2,-3.8459277E-1,6.457501E-2,-1.4662091E-1,-6.36035E-3,-5.2759122E-2,4.321175E-2,-2.467117E-3,1.4533914E-2,-1.8177848E-2,4.2688835E-2,-1.2084047E-3,7.619543E-2],"categories":[],"categories_nodes":[],"categories_segments":[],"categories_sizes":[],"default_left":[0,0,0,0,0,0,0,0,0,0,0,0,0,0,0],"id":100,"left_children":[1,3,5,7,9,11,13,-1,-1,-1,-1,-1,-1,-1,-1],"loss_changes":[8.326246E0,1.2283897E1,9.258922E0,7.8755007E0,1.211434E1,1.276867E1,7.4634156E0,0E0,0E0,0E0,0E0,0E0,0E0,0E0,0E0],"parents":[2147483647,0,0,1,1,2,2,3,3,4,4,5,5,6,6],"right_children":[2,4,6,8,10,12,14,-1,-1,-1,-1,-1,-1,-1,-1],"split_conditions":[-1.0776858E-1,-9.372869E-2,4.0731242E-1,1.0323683E0,-1.8868628E-1,1.5015026E0,1.4461659E0,-5.2759122E-2,4.321175E-2,-2.467117E-3,1.4533914E-2,-1.8177848E-2,4.2688835E-2,-1.2084047E-3,7.619543E-2],"split_indices":[10,11,8,14,2,15,8,0,0,0,0,0,0,0,0],"split_type":[0,0,0,0,0,0,0,0,0,0,0,0,0,0,0],"sum_hessian":[4.2188945E3,1.7216818E3,2.497213E3,6.071232E1,1.6609695E3,6.357257E2,1.8614872E3,5.3310562E1,7.401755E0,7.8382855E2,8.7714087E2,6.019353E2,3.3790417E1,